<?xml version="1.0"?>
<opencv_storage>
<opencv_ml_svm>
  <format>3</format>
  <svmType>C_SVC</svmType>
  <kernel>
    <type>RBF</type>
    <gamma>1.</gamma></kernel>
  <C>1.</C>
  <term_criteria><epsilon>1.1920928955078125e-07</epsilon>
    <iterations>1000</iterations></term_criteria>
  <var_count>16</var_count>
  <class_count>2</class_count>
  <class_labels type_id="opencv-matrix">
    <rows>2</rows>
    <cols>1</cols>
    <dt>i</dt>
    <data>
      0 1</data></class_labels>
  <sv_total>646</sv_total>
  <support_vectors>
    <_>
      -2.84445739 -10.6817465 -13.0926609 -12.862464 -25.8605671
      -18.2056961 26.3622971 0.433050007 0.195700005 0.0165195465 3.
      33.9609299 0.458110809 0.458110809 0.498242199 0.265745521</_>
    <_>
      -2.80997634 -10.0172596 -11.9596443 -12.6378441 25.1362019
      17.6468735 -25.0470829 0.298999995 0.126599997 0.0114059448 3.
      21.8073921 0.423667908 0.423667908 0.494139075 0.258038998</_>
    <_>
      -2.86377811 -9.77435875 -12.2235241 -13.3850393 -26.3135948
      18.2787666 26.3696899 1.15600002 0.598150015 0.0440979004 3.
      87.2404175 0.47776413 0.47776413 0.499505311 0.273206085</_>
    <_>
      -2.81231284 -9.00975513 -14.1844425 -13.7534485 -28.3236637
      -18.2848549 -27.7364616 0.261999995 0.0964000002 0.00999450684 3.
      20.7575855 0.425731659 0.425731659 0.49445346 0.259283006</_>
    <_>
      -2.82806921 -9.28423405 -12.3614483 -13.4936771 27.1830635
      18.2355442 -26.4278412 0.434599996 0.218349993 0.0165786743 3.
      33.3330193 0.440471649 0.440471649 0.496443719 0.263107955</_>
    <_>
      -2.8303535 -10.461257 -11.9827185 -13.2867422 -25.9942284
      -18.6196461 26.1942787 0.297149986 0.104599997 0.0113353729 3.
      23.1585903 0.444156647 0.444156647 0.49687174 0.264188498</_>
    <_>
      -2.801157 -8.98340321 -12.5140238 -12.5039597 -25.1978989
      -17.0017338 25.1337547 0.340050012 0.123549998 0.0129718781 3.
      24.8683968 0.417816162 0.417816162 0.493199557 0.251588166</_>
    <_>
      -2.80839205 -9.50240707 -12.309783 -12.9878235 25.7165127
      -17.9127293 25.8924904 0.414050013 0.150049999 0.015794754 3.
      26.1843777 0.422168732 0.422168732 0.493905157 0.260005832</_>
    <_>
      -2.81528831 -9.07842541 -14.1185484 -12.392292 25.9065228
      16.9410763 -25.7262993 0.296200007 0.115400001 0.0112991333 3.
      23.4456253 0.427036285 0.427036285 0.494647652 0.260142177</_>
    <_>
      -2.80651498 -9.68304539 -12.6958914 -11.8127499 -24.2899837
      -16.6552029 -24.1633835 0.325349987 0.115599997 0.0124111176 3.
      24.1472206 0.425216675 0.425216675 0.494375825 0.258933485</_>
    <_>
      -2.81017208 -9.58987808 -13.1275377 -12.6621027 25.6463566
      -17.6888676 25.7927322 0.331050009 0.136150002 0.0126285553 3.
      27.0057983 0.425239563 0.425239563 0.494379282 0.260896206</_>
    <_>
      -2.82499242 -9.85247993 -12.1409378 -12.9799414 25.7727413
      17.9422894 25.6315937 0.346549988 0.133399993 0.0132198334 3.
      24.6069756 0.438777924 0.438777924 0.496237695 0.258870333</_>
    <_>
      -2.79646969 -9.26191616 -12.0202417 -13.8436661 26.7849941
      18.4835777 27.4626999 0.282999992 0.115400001 0.0107955933 3.
      20.4677372 0.409004211 0.409004211 0.491650045 0.248905063</_>
    <_>
      -2.8541615 -10.0292854 -12.6996622 -13.5851774 26.8159924
      18.5999794 -26.9654598 0.728649974 0.352200001 0.0277957916 3.
      54.665905 0.468780518 0.468780518 0.499024391 0.267211497</_>
    <_>
      -2.81209397 -9.28034973 -12.4311161 -12.8872814 26.1351738
      -17.5574322 -25.5614166 0.204050004 0.0712499991 0.00778388977 3.
      14.3147726 0.428489685 0.428489685 0.494859844 0.263681263</_>
    <_>
      -2.82647324 -9.99912643 -13.0390196 -12.289031 -25.1789074
      17.5575314 25.0477467 0.34375 0.155650005 0.0131130219 3.
      27.0135365 0.438484192 0.438484192 0.496201366 0.257532656</_>
    <_>
      -2.86070991 -10.0729609 -12.7177868 -14.1781416 -27.6783829
      19.3918133 -27.9609413 0.664849997 0.261500001 0.0253620148 3.
      53.6648293 0.474918365 0.474918365 0.499370515 0.269809216</_>
    <_>
      -2.82556105 -10.7545338 -12.7198458 -12.921567 -26.3822823
      -18.6659851 25.7539787 0.260049999 0.101800002 0.00992012024 3.
      18.5068741 0.441635132 0.441635132 0.496581852 0.261162639</_>
    <_>
      -2.82580376 -9.54512119 -11.9458427 -12.0003557 24.144207
      16.9241028 24.1054592 0.513800025 0.263399988 0.0195999146 3.
      30.0581741 0.434406281 0.434406281 0.495678782 0.25625807</_>
    <_>
      -2.81206965 -9.52535248 -12.320756 -12.5152998 -25.3007736
      17.385519 -24.9775143 0.309599996 0.114749998 0.0118103027 3.
      23.3967533 0.423046112 0.423046112 0.494042605 0.260477722</_>
    <_>
      -2.82884526 -9.82753086 -12.7889261 -13.3458824 -26.4329586
      19.0005455 26.9445114 0.477499992 0.198449999 0.0182151794 3.
      38.8644295 0.442573547 0.442573547 0.496691257 0.249244094</_>
    <_>
      -2.84224916 -10.0705547 -12.2924585 -14.0617971 -27.3821411
      -19.1744595 27.3969936 0.405299991 0.156900004 0.015460968 3.
      29.8945827 0.454498291 0.454498291 0.497925282 0.258565933</_>
    <_>
      -2.88143492 -9.93719578 -12.8060923 -13.3367662 29.2046185
      -18.3123665 -26.4081955 4.92115021 2.60505009 0.187726974 3.
      236.721146 0.499481201 0.499481201 0.499999732 0.267533839</_>
    <_>
      -2.84646153 -9.69843102 -14.227994 -13.2074385 -27.2133789
      -18.240284 -26.9920673 0.469449997 0.185749993 0.0179080963 3.
      37.7584724 0.459018707 0.459018707 0.498317689 0.26032871</_>
    <_>
      -2.84423947 -9.97579956 -13.647769 -15.1577654 29.5891438
      21.5826683 30.0147915 0.497500002 0.252900004 0.0189781189 3.
      40.7977104 0.45734024 0.45734024 0.498176813 0.26626423</_>
    <_>
      -2.85588932 -10.11555 -13.5275631 -12.8136864 -26.1301537
      17.8717766 26.1396027 0.651549995 0.314999998 0.02485466 3.
      47.7472878 0.471618652 0.471618652 0.499193847 0.27027896</_>
    <_>
      -2.85527039 -9.05336094 -12.1795664 -12.1923771 -24.4621544
      17.5922184 -24.6256466 0.658299983 0.300900012 0.0251121521 3.
      53.5027466 0.470649719 0.470649719 0.499137819 0.270555466</_>
    <_>
      -2.81103444 -9.86972141 -12.3630905 -13.0556564 -25.9036427
      -17.9906673 25.9281387 0.269849986 0.0960000008 0.0102939606 3.
      21.7749157 0.423946381 0.423946381 0.494181991 0.25877589</_>
    <_>
      -2.81300616 -9.51541233 -11.9805622 -12.6529627 -25.0698452
      17.4650021 -25.1859798 0.569350004 0.275099993 0.0217189789 3.
      41.9480934 0.427036285 0.427036285 0.494647652 0.258269936</_>
    <_>
      -2.82068014 -9.78111744 -12.1197004 -12.9992075 25.8109245
      -17.9652615 -25.6401672 0.238949999 0.0803000033 0.00911521912 3.
      17.8453102 0.431983948 0.431983948 0.495352209 0.261426061</_>
    <_>
      -2.87379479 -10.2818069 -12.7059307 -13.26472 26.3314171
      18.9228325 26.5026016 1.64230001 0.872600019 0.0626487732 3.
      104.751572 0.4897995 0.4897995 0.49989593 0.273727059</_>
    <_>
      -2.82098913 -9.91836166 -12.6480112 -12.1727571 24.9146652
      -18.1403103 -24.6363277 0.306050003 0.116750002 0.011674881 3.
      24.1236877 0.432552338 0.432552338 0.495429933 0.262479454</_>
    <_>
      -2.86473012 -9.68833542 -13.0494041 -13.7551718 -27.2337646
      -18.7460861 -27.4216003 1.93359995 1.21665001 0.0737609863 3.
      109.418716 0.478218079 0.478218079 0.499525309 0.265281051</_>
    <_>
      -2.82599688 -9.67805099 -12.1071987 -14.2172289 -28.7894554
      -19.0594025 -27.3797722 0.324800014 0.128600001 0.0123901367 3.
      23.8306217 0.436389923 0.436389923 0.495937258 0.259983271</_>
    <_>
      -2.88103771 -10.3440008 -12.7554169 -13.3421984 26.4547501
      -18.655035 -26.6882496 3.11435008 1.68340003 0.118803024 3.
      185.24469 0.497322083 0.497322083 0.499992818 0.271479189</_>
    <_>
      -2.83745956 -10.2456007 -12.6263351 -13.4545937 -26.7341137
      18.6098576 26.5828571 0.566550016 0.234750003 0.0216121674 3.
      39.6493568 0.450679779 0.450679779 0.497561574 0.249388859</_>
    <_>
      -2.87354469 -10.3588324 -12.8513241 -12.8284969 25.8759708
      19.2783966 -25.7737865 2.44930005 0.984149992 0.0934333801 3.
      166.945328 0.489837646 0.489837646 0.499896705 0.271921515</_>
    <_>
      -2.8473475 -10.7073574 -13.4281216 -12.9736967 -27.0048294
      -18.3399162 26.1794033 0.767050028 0.427949995 0.0292606354 3.
      54.1914482 0.465774536 0.465774536 0.498827249 0.271140903</_>
    <_>
      -2.82594872 -9.78405762 -12.7747002 -12.7999287 -25.7713947
      17.7731342 -25.7086411 0.297250003 0.105700001 0.0113391876 3.
      21.5015354 0.442329407 0.442329407 0.496662974 0.259743333</_>
    <_>
      -2.81550002 -9.81161213 -12.2739 -13.3994284 -26.4071236
      18.8103123 -26.3678627 0.283199996 0.109250002 0.0108032227 3.
      18.2831287 0.43062973 0.43062973 0.495164394 0.261299759</_>
    <_>
      -2.81868887 -10.0601015 -12.2177601 -12.4932261 -25.3780861
      17.5590706 -24.8685684 0.288150012 0.105300002 0.0109920502 3.
      22.4333935 0.432247162 0.432247162 0.495388299 0.265306592</_>
    <_>
      -2.80865097 -9.59751225 -12.9067125 -13.185709 -26.2327061
      -17.9859161 -27.4528599 0.257349998 0.0873500034 0.00981712341 3.
      19.8215351 0.420608521 0.420608521 0.493656754 0.259842932</_>
    <_>
      -2.83165288 -10.3253756 -12.249155 -13.4889536 26.359478
      -19.0488949 27.443512 0.258350015 0.0895000026 0.00985527039 3.
      20.4945698 0.442623138 0.442623138 0.496696979 0.263826102</_>
    <_>
      -2.84019351 -9.77527714 -12.5648432 -13.5763655 26.8027573
      -18.5794239 -26.7923374 0.399199992 0.144199997 0.0152282715 3.
      31.1652222 0.453907013 0.453907013 0.497870892 0.267122358</_>
    <_>
      -2.86385441 -9.51248741 -12.7539415 -13.002326 25.9945698
      18.491272 -26.0747356 0.718850017 0.256049991 0.0274219513 3.
      50.1742897 0.481060028 0.481060028 0.49964115 0.270973384</_>
    <_>
      -2.85346723 -10.0402012 -13.3051004 -12.443861 -25.6436806
      -17.4709206 -25.3732777 0.611750007 0.309749991 0.0233364105 3.
      45.4228783 0.470218658 0.470218658 0.499112278 0.268981993</_>
    <_>
      -2.86539721 -10.7869186 -12.6919069 -13.062829 -26.0395069
      -18.4870872 -26.1578426 0.796800017 0.357650012 0.0303955078 3.
      62.6297951 0.476989746 0.476989746 0.499470234 0.271760911</_>
    <_>
      -2.84451485 -9.55843735 -12.4174347 -13.1461039 -25.9616203
      -19.0613899 26.3487835 0.395099998 0.142499998 0.0150718689 3.
      32.9641876 0.460109711 0.460109711 0.498406231 0.264547437</_>
    <_>
      -2.83481193 -9.51354599 -12.3346539 -14.3070583 27.9309139
      19.5011501 27.6897316 0.354299992 0.135399997 0.0135154724 3.
      27.6753731 0.449272156 0.449272156 0.497420043 0.265807837</_>
    <_>
      -2.85968494 -10.3395214 -14.8369789 -13.9321642 28.3282394
      -19.111763 -28.9604416 1.13689995 0.47299999 0.0433692932 3.
      61.7042542 0.474498749 0.474498749 0.499349266 0.266910315</_>
    <_>
      -2.81005979 -9.00373363 -12.3538952 -12.3102036 25.6824951
      16.8154316 -24.6440639 0.390599996 0.171749994 0.0149002075 3.
      21.0057278 0.427341461 0.427341461 0.494692564 0.258103669</_>
    <_>
      -2.81269479 -9.99962139 -13.0535917 -12.7942486 -25.7290363
      19.4538498 -26.3739147 0.29824999 0.107050002 0.0113773346 3.
      21.1661434 0.421588898 0.421588898 0.493813425 0.259055316</_>
    <_>
      -2.86155367 -10.0505877 -12.9583263 -13.1713028 26.2619133
      18.347023 26.7114983 0.715900004 0.293350011 0.0273094177 3.
      47.8241692 0.475925446 0.475925446 0.499420077 0.266875774</_>
    <_>
      -2.8367815 -10.9290571 -12.8239708 -14.6566439 28.3970699
      20.372509 30.0260086 0.310449988 0.106349997 0.0118427277 3.
      28.3296585 0.449867249 0.449867249 0.497480363 0.261771262</_>
    <_>
      -2.8318665 -9.59770393 -12.4705553 -12.9313087 -25.6479321
      -17.8224277 26.2105961 0.283300012 0.103500001 0.0108070374 3.
      24.4371395 0.44575882 0.44575882 0.497049183 0.263825089</_>
    <_>
      -2.82405376 -9.31973648 -13.0352478 -13.41957 26.7679863
      18.2782898 -26.8316517 0.276749998 0.108499996 0.0105571747 3.
      20.8788338 0.43920517 0.43920517 0.496290237 0.263292104</_>
    <_>
      -2.87361431 -10.9010754 -12.4277782 -13.4468451 -26.7287502
      -18.8975086 26.4338531 4.41870022 1.65100002 0.168560028 3.
      217.314377 0.488735199 0.488735199 0.499873102 0.260364234</_>
    <_>
      -2.8694098 -10.6732836 -12.2686558 -12.7656984 -25.3263645
      -19.1446285 25.6534386 3.91704988 2.60384989 0.149423599 3.
      170.126907 0.485427856 0.485427856 0.499787599 0.253475726</_>
    <_>
      -2.82351589 -9.87547112 -13.0598154 -12.5750303 25.4816284
      17.8136959 25.6287727 0.33495 0.136950001 0.0127773285 3.
      23.8217793 0.432899475 0.432899475 0.495477051 0.260687351</_>
    <_>
      -2.8234663 -9.87799644 -13.5078344 -12.7703943 -26.7156467
      -18.0687542 -25.9148769 0.289299995 0.132149994 0.0110359192 3.
      23.35322 0.437026978 0.437026978 0.496018559 0.261271805</_>
    <_>
      -2.81643629 -10.0929413 -12.0277243 -13.0987606 25.9124393
      18.5062332 25.7443447 0.473650008 0.237100005 0.0180683136 3.
      34.0538826 0.428482056 0.428482056 0.494858742 0.257954538</_>
    <_>
      -2.82682061 -11.2550344 -13.2942829 -13.9000578 -27.4972286
      19.70788 -30.2665462 0.424100012 0.164450005 0.0161781311 3.
      33.2827225 0.436710358 0.436710358 0.495978236 0.262016475</_>
    <_>
      -2.87828016 -10.4551811 -12.3405323 -14.270278 -27.6507072
      19.51964 -27.8428898 1.44649994 0.526950002 0.0551795959 3.
      99.3145142 0.493843079 0.493843079 0.499962091 0.272209316</_>
    <_>
      -2.84510565 -9.84553909 -12.7129993 -12.5692749 -26.0036011
      17.5234852 -25.216114 0.578450024 0.294349998 0.0220661163 3.
      46.7464104 0.455154419 0.455154419 0.497984827 0.268117636</_>
    <_>
      -2.84484768 -10.5666828 -12.9569063 -12.8235836 -25.7947369
      18.1836758 -25.9674053 0.508899987 0.2007 0.0194129944 3.
      35.7552147 0.458713531 0.458713531 0.498292506 0.261830926</_>
    <_>
      -2.84445739 -10.6817465 -13.0926609 -12.862464 -25.8605671
      -18.2056961 26.3622971 0.433050007 0.195700005 0.0165195465 3.
      33.9609299 0.458110809 0.458110809 0.498242199 0.265745521</_>
    <_>
      -2.80997634 -10.0172596 -11.9596443 -12.6378441 25.1362019
      17.6468735 -25.0470829 0.298999995 0.126599997 0.0114059448 3.
      21.8073921 0.423667908 0.423667908 0.494139075 0.258038998</_>
    <_>
      -2.86377811 -9.77435875 -12.2235241 -13.3850393 -26.3135948
      18.2787666 26.3696899 1.15600002 0.598150015 0.0440979004 3.
      87.2404175 0.47776413 0.47776413 0.499505311 0.273206085</_>
    <_>
      -2.81231284 -9.00975513 -14.1844425 -13.7534485 -28.3236637
      -18.2848549 -27.7364616 0.261999995 0.0964000002 0.00999450684 3.
      20.7575855 0.425731659 0.425731659 0.49445346 0.259283006</_>
    <_>
      -2.82806921 -9.28423405 -12.3614483 -13.4936771 27.1830635
      18.2355442 -26.4278412 0.434599996 0.218349993 0.0165786743 3.
      33.3330193 0.440471649 0.440471649 0.496443719 0.263107955</_>
    <_>
      -2.8303535 -10.461257 -11.9827185 -13.2867422 -25.9942284
      -18.6196461 26.1942787 0.297149986 0.104599997 0.0113353729 3.
      23.1585903 0.444156647 0.444156647 0.49687174 0.264188498</_>
    <_>
      -2.801157 -8.98340321 -12.5140238 -12.5039597 -25.1978989
      -17.0017338 25.1337547 0.340050012 0.123549998 0.0129718781 3.
      24.8683968 0.417816162 0.417816162 0.493199557 0.251588166</_>
    <_>
      -2.80839205 -9.50240707 -12.309783 -12.9878235 25.7165127
      -17.9127293 25.8924904 0.414050013 0.150049999 0.015794754 3.
      26.1843777 0.422168732 0.422168732 0.493905157 0.260005832</_>
    <_>
      -2.81528831 -9.07842541 -14.1185484 -12.392292 25.9065228
      16.9410763 -25.7262993 0.296200007 0.115400001 0.0112991333 3.
      23.4456253 0.427036285 0.427036285 0.494647652 0.260142177</_>
    <_>
      -2.80651498 -9.68304539 -12.6958914 -11.8127499 -24.2899837
      -16.6552029 -24.1633835 0.325349987 0.115599997 0.0124111176 3.
      24.1472206 0.425216675 0.425216675 0.494375825 0.258933485</_>
    <_>
      -2.81017208 -9.58987808 -13.1275377 -12.6621027 25.6463566
      -17.6888676 25.7927322 0.331050009 0.136150002 0.0126285553 3.
      27.0057983 0.425239563 0.425239563 0.494379282 0.260896206</_>
    <_>
      -2.82499242 -9.85247993 -12.1409378 -12.9799414 25.7727413
      17.9422894 25.6315937 0.346549988 0.133399993 0.0132198334 3.
      24.6069756 0.438777924 0.438777924 0.496237695 0.258870333</_>
    <_>
      -2.79646969 -9.26191616 -12.0202417 -13.8436661 26.7849941
      18.4835777 27.4626999 0.282999992 0.115400001 0.0107955933 3.
      20.4677372 0.409004211 0.409004211 0.491650045 0.248905063</_>
    <_>
      -2.8541615 -10.0292854 -12.6996622 -13.5851774 26.8159924
      18.5999794 -26.9654598 0.728649974 0.352200001 0.0277957916 3.
      54.665905 0.468780518 0.468780518 0.499024391 0.267211497</_>
    <_>
      -2.81209397 -9.28034973 -12.4311161 -12.8872814 26.1351738
      -17.5574322 -25.5614166 0.204050004 0.0712499991 0.00778388977 3.
      14.3147726 0.428489685 0.428489685 0.494859844 0.263681263</_>
    <_>
      -2.82647324 -9.99912643 -13.0390196 -12.289031 -25.1789074
      17.5575314 25.0477467 0.34375 0.155650005 0.0131130219 3.
      27.0135365 0.438484192 0.438484192 0.496201366 0.257532656</_>
    <_>
      -2.86070991 -10.0729609 -12.7177868 -14.1781416 -27.6783829
      19.3918133 -27.9609413 0.664849997 0.261500001 0.0253620148 3.
      53.6648293 0.474918365 0.474918365 0.499370515 0.269809216</_>
    <_>
      -2.82556105 -10.7545338 -12.7198458 -12.921567 -26.3822823
      -18.6659851 25.7539787 0.260049999 0.101800002 0.00992012024 3.
      18.5068741 0.441635132 0.441635132 0.496581852 0.261162639</_>
    <_>
      -2.82580376 -9.54512119 -11.9458427 -12.0003557 24.144207
      16.9241028 24.1054592 0.513800025 0.263399988 0.0195999146 3.
      30.0581741 0.434406281 0.434406281 0.495678782 0.25625807</_>
    <_>
      -2.81206965 -9.52535248 -12.320756 -12.5152998 -25.3007736
      17.385519 -24.9775143 0.309599996 0.114749998 0.0118103027 3.
      23.3967533 0.423046112 0.423046112 0.494042605 0.260477722</_>
    <_>
      -2.82884526 -9.82753086 -12.7889261 -13.3458824 -26.4329586
      19.0005455 26.9445114 0.477499992 0.198449999 0.0182151794 3.
      38.8644295 0.442573547 0.442573547 0.496691257 0.249244094</_>
    <_>
      -2.84224916 -10.0705547 -12.2924585 -14.0617971 -27.3821411
      -19.1744595 27.3969936 0.405299991 0.156900004 0.015460968 3.
      29.8945827 0.454498291 0.454498291 0.497925282 0.258565933</_>
    <_>
      -2.88143492 -9.93719578 -12.8060923 -13.3367662 29.2046185
      -18.3123665 -26.4081955 4.92115021 2.60505009 0.187726974 3.
      236.721146 0.499481201 0.499481201 0.499999732 0.267533839</_>
    <_>
      -2.84646153 -9.69843102 -14.227994 -13.2074385 -27.2133789
      -18.240284 -26.9920673 0.469449997 0.185749993 0.0179080963 3.
      37.7584724 0.459018707 0.459018707 0.498317689 0.26032871</_>
    <_>
      -2.84423947 -9.97579956 -13.647769 -15.1577654 29.5891438
      21.5826683 30.0147915 0.497500002 0.252900004 0.0189781189 3.
      40.7977104 0.45734024 0.45734024 0.498176813 0.26626423</_>
    <_>
      -2.85588932 -10.11555 -13.5275631 -12.8136864 -26.1301537
      17.8717766 26.1396027 0.651549995 0.314999998 0.02485466 3.
      47.7472878 0.471618652 0.471618652 0.499193847 0.27027896</_>
    <_>
      -2.85527039 -9.05336094 -12.1795664 -12.1923771 -24.4621544
      17.5922184 -24.6256466 0.658299983 0.300900012 0.0251121521 3.
      53.5027466 0.470649719 0.470649719 0.499137819 0.270555466</_>
    <_>
      -2.81103444 -9.86972141 -12.3630905 -13.0556564 -25.9036427
      -17.9906673 25.9281387 0.269849986 0.0960000008 0.0102939606 3.
      21.7749157 0.423946381 0.423946381 0.494181991 0.25877589</_>
    <_>
      -2.81300616 -9.51541233 -11.9805622 -12.6529627 -25.0698452
      17.4650021 -25.1859798 0.569350004 0.275099993 0.0217189789 3.
      41.9480934 0.427036285 0.427036285 0.494647652 0.258269936</_>
    <_>
      -2.82068014 -9.78111744 -12.1197004 -12.9992075 25.8109245
      -17.9652615 -25.6401672 0.238949999 0.0803000033 0.00911521912 3.
      17.8453102 0.431983948 0.431983948 0.495352209 0.261426061</_>
    <_>
      -2.87379479 -10.2818069 -12.7059307 -13.26472 26.3314171
      18.9228325 26.5026016 1.64230001 0.872600019 0.0626487732 3.
      104.751572 0.4897995 0.4897995 0.49989593 0.273727059</_>
    <_>
      -2.82098913 -9.91836166 -12.6480112 -12.1727571 24.9146652
      -18.1403103 -24.6363277 0.306050003 0.116750002 0.011674881 3.
      24.1236877 0.432552338 0.432552338 0.495429933 0.262479454</_>
    <_>
      -2.86473012 -9.68833542 -13.0494041 -13.7551718 -27.2337646
      -18.7460861 -27.4216003 1.93359995 1.21665001 0.0737609863 3.
      109.418716 0.478218079 0.478218079 0.499525309 0.265281051</_>
    <_>
      -2.82599688 -9.67805099 -12.1071987 -14.2172289 -28.7894554
      -19.0594025 -27.3797722 0.324800014 0.128600001 0.0123901367 3.
      23.8306217 0.436389923 0.436389923 0.495937258 0.259983271</_>
    <_>
      -2.88103771 -10.3440008 -12.7554169 -13.3421984 26.4547501
      -18.655035 -26.6882496 3.11435008 1.68340003 0.118803024 3.
      185.24469 0.497322083 0.497322083 0.499992818 0.271479189</_>
    <_>
      -2.83745956 -10.2456007 -12.6263351 -13.4545937 -26.7341137
      18.6098576 26.5828571 0.566550016 0.234750003 0.0216121674 3.
      39.6493568 0.450679779 0.450679779 0.497561574 0.249388859</_>
    <_>
      -2.87354469 -10.3588324 -12.8513241 -12.8284969 25.8759708
      19.2783966 -25.7737865 2.44930005 0.984149992 0.0934333801 3.
      166.945328 0.489837646 0.489837646 0.499896705 0.271921515</_>
    <_>
      -2.8473475 -10.7073574 -13.4281216 -12.9736967 -27.0048294
      -18.3399162 26.1794033 0.767050028 0.427949995 0.0292606354 3.
      54.1914482 0.465774536 0.465774536 0.498827249 0.271140903</_>
    <_>
      -2.82594872 -9.78405762 -12.7747002 -12.7999287 -25.7713947
      17.7731342 -25.7086411 0.297250003 0.105700001 0.0113391876 3.
      21.5015354 0.442329407 0.442329407 0.496662974 0.259743333</_>
    <_>
      -2.81550002 -9.81161213 -12.2739 -13.3994284 -26.4071236
      18.8103123 -26.3678627 0.283199996 0.109250002 0.0108032227 3.
      18.2831287 0.43062973 0.43062973 0.495164394 0.261299759</_>
    <_>
      -2.81868887 -10.0601015 -12.2177601 -12.4932261 -25.3780861
      17.5590706 -24.8685684 0.288150012 0.105300002 0.0109920502 3.
      22.4333935 0.432247162 0.432247162 0.495388299 0.265306592</_>
    <_>
      -2.80865097 -9.59751225 -12.9067125 -13.185709 -26.2327061
      -17.9859161 -27.4528599 0.257349998 0.0873500034 0.00981712341 3.
      19.8215351 0.420608521 0.420608521 0.493656754 0.259842932</_>
    <_>
      -2.83165288 -10.3253756 -12.249155 -13.4889536 26.359478
      -19.0488949 27.443512 0.258350015 0.0895000026 0.00985527039 3.
      20.4945698 0.442623138 0.442623138 0.496696979 0.263826102</_>
    <_>
      -2.84019351 -9.77527714 -12.5648432 -13.5763655 26.8027573
      -18.5794239 -26.7923374 0.399199992 0.144199997 0.0152282715 3.
      31.1652222 0.453907013 0.453907013 0.497870892 0.267122358</_>
    <_>
      -2.86385441 -9.51248741 -12.7539415 -13.002326 25.9945698
      18.491272 -26.0747356 0.718850017 0.256049991 0.0274219513 3.
      50.1742897 0.481060028 0.481060028 0.49964115 0.270973384</_>
    <_>
      -2.85346723 -10.0402012 -13.3051004 -12.443861 -25.6436806
      -17.4709206 -25.3732777 0.611750007 0.309749991 0.0233364105 3.
      45.4228783 0.470218658 0.470218658 0.499112278 0.268981993</_>
    <_>
      -2.86539721 -10.7869186 -12.6919069 -13.062829 -26.0395069
      -18.4870872 -26.1578426 0.796800017 0.357650012 0.0303955078 3.
      62.6297951 0.476989746 0.476989746 0.499470234 0.271760911</_>
    <_>
      -2.84451485 -9.55843735 -12.4174347 -13.1461039 -25.9616203
      -19.0613899 26.3487835 0.395099998 0.142499998 0.0150718689 3.
      32.9641876 0.460109711 0.460109711 0.498406231 0.264547437</_>
    <_>
      -2.83481193 -9.51354599 -12.3346539 -14.3070583 27.9309139
      19.5011501 27.6897316 0.354299992 0.135399997 0.0135154724 3.
      27.6753731 0.449272156 0.449272156 0.497420043 0.265807837</_>
    <_>
      -2.85968494 -10.3395214 -14.8369789 -13.9321642 28.3282394
      -19.111763 -28.9604416 1.13689995 0.47299999 0.0433692932 3.
      61.7042542 0.474498749 0.474498749 0.499349266 0.266910315</_>
    <_>
      -2.81005979 -9.00373363 -12.3538952 -12.3102036 25.6824951
      16.8154316 -24.6440639 0.390599996 0.171749994 0.0149002075 3.
      21.0057278 0.427341461 0.427341461 0.494692564 0.258103669</_>
    <_>
      -2.81269479 -9.99962139 -13.0535917 -12.7942486 -25.7290363
      19.4538498 -26.3739147 0.29824999 0.107050002 0.0113773346 3.
      21.1661434 0.421588898 0.421588898 0.493813425 0.259055316</_>
    <_>
      -2.86155367 -10.0505877 -12.9583263 -13.1713028 26.2619133
      18.347023 26.7114983 0.715900004 0.293350011 0.0273094177 3.
      47.8241692 0.475925446 0.475925446 0.499420077 0.266875774</_>
    <_>
      -2.8367815 -10.9290571 -12.8239708 -14.6566439 28.3970699
      20.372509 30.0260086 0.310449988 0.106349997 0.0118427277 3.
      28.3296585 0.449867249 0.449867249 0.497480363 0.261771262</_>
    <_>
      -2.8318665 -9.59770393 -12.4705553 -12.9313087 -25.6479321
      -17.8224277 26.2105961 0.283300012 0.103500001 0.0108070374 3.
      24.4371395 0.44575882 0.44575882 0.497049183 0.263825089</_>
    <_>
      -2.82405376 -9.31973648 -13.0352478 -13.41957 26.7679863
      18.2782898 -26.8316517 0.276749998 0.108499996 0.0105571747 3.
      20.8788338 0.43920517 0.43920517 0.496290237 0.263292104</_>
    <_>
      -2.87361431 -10.9010754 -12.4277782 -13.4468451 -26.7287502
      -18.8975086 26.4338531 4.41870022 1.65100002 0.168560028 3.
      217.314377 0.488735199 0.488735199 0.499873102 0.260364234</_>
    <_>
      -2.8694098 -10.6732836 -12.2686558 -12.7656984 -25.3263645
      -19.1446285 25.6534386 3.91704988 2.60384989 0.149423599 3.
      170.126907 0.485427856 0.485427856 0.499787599 0.253475726</_>
    <_>
      -2.82351589 -9.87547112 -13.0598154 -12.5750303 25.4816284
      17.8136959 25.6287727 0.33495 0.136950001 0.0127773285 3.
      23.8217793 0.432899475 0.432899475 0.495477051 0.260687351</_>
    <_>
      -2.8234663 -9.87799644 -13.5078344 -12.7703943 -26.7156467
      -18.0687542 -25.9148769 0.289299995 0.132149994 0.0110359192 3.
      23.35322 0.437026978 0.437026978 0.496018559 0.261271805</_>
    <_>
      -2.81643629 -10.0929413 -12.0277243 -13.0987606 25.9124393
      18.5062332 25.7443447 0.473650008 0.237100005 0.0180683136 3.
      34.0538826 0.428482056 0.428482056 0.494858742 0.257954538</_>
    <_>
      -2.82682061 -11.2550344 -13.2942829 -13.9000578 -27.4972286
      19.70788 -30.2665462 0.424100012 0.164450005 0.0161781311 3.
      33.2827225 0.436710358 0.436710358 0.495978236 0.262016475</_>
    <_>
      -2.84510565 -9.84553909 -12.7129993 -12.5692749 -26.0036011
      17.5234852 -25.216114 0.578450024 0.294349998 0.0220661163 3.
      46.7464104 0.455154419 0.455154419 0.497984827 0.268117636</_>
    <_>
      -2.84484768 -10.5666828 -12.9569063 -12.8235836 -25.7947369
      18.1836758 -25.9674053 0.508899987 0.2007 0.0194129944 3.
      35.7552147 0.458713531 0.458713531 0.498292506 0.261830926</_>
    <_>
      -2.80997634 -10.0172596 -11.9596443 -12.6378441 25.1362019
      17.6468735 -25.0470829 0.298999995 0.126599997 0.0114059448 3.
      21.8073921 0.423667908 0.423667908 0.494139075 0.258038998</_>
    <_>
      -2.80839205 -9.50240707 -12.309783 -12.9878235 25.7165127
      -17.9127293 25.8924904 0.414050013 0.150049999 0.015794754 3.
      26.1843777 0.422168732 0.422168732 0.493905157 0.260005832</_>
    <_>
      -2.81528831 -9.07842541 -14.1185484 -12.392292 25.9065228
      16.9410763 -25.7262993 0.296200007 0.115400001 0.0112991333 3.
      23.4456253 0.427036285 0.427036285 0.494647652 0.260142177</_>
    <_>
      -2.80651498 -9.68304539 -12.6958914 -11.8127499 -24.2899837
      -16.6552029 -24.1633835 0.325349987 0.115599997 0.0124111176 3.
      24.1472206 0.425216675 0.425216675 0.494375825 0.258933485</_>
    <_>
      -2.81017208 -9.58987808 -13.1275377 -12.6621027 25.6463566
      -17.6888676 25.7927322 0.331050009 0.136150002 0.0126285553 3.
      27.0057983 0.425239563 0.425239563 0.494379282 0.260896206</_>
    <_>
      -2.82499242 -9.85247993 -12.1409378 -12.9799414 25.7727413
      17.9422894 25.6315937 0.346549988 0.133399993 0.0132198334 3.
      24.6069756 0.438777924 0.438777924 0.496237695 0.258870333</_>
    <_>
      -2.82647324 -9.99912643 -13.0390196 -12.289031 -25.1789074
      17.5575314 25.0477467 0.34375 0.155650005 0.0131130219 3.
      27.0135365 0.438484192 0.438484192 0.496201366 0.257532656</_>
    <_>
      -2.82556105 -10.7545338 -12.7198458 -12.921567 -26.3822823
      -18.6659851 25.7539787 0.260049999 0.101800002 0.00992012024 3.
      18.5068741 0.441635132 0.441635132 0.496581852 0.261162639</_>
    <_>
      -2.81103444 -9.86972141 -12.3630905 -13.0556564 -25.9036427
      -17.9906673 25.9281387 0.269849986 0.0960000008 0.0102939606 3.
      21.7749157 0.423946381 0.423946381 0.494181991 0.25877589</_>
    <_>
      -2.81550002 -9.81161213 -12.2739 -13.3994284 -26.4071236
      18.8103123 -26.3678627 0.283199996 0.109250002 0.0108032227 3.
      18.2831287 0.43062973 0.43062973 0.495164394 0.261299759</_>
    <_>
      -2.8318665 -9.59770393 -12.4705553 -12.9313087 -25.6479321
      -17.8224277 26.2105961 0.283300012 0.103500001 0.0108070374 3.
      24.4371395 0.44575882 0.44575882 0.497049183 0.263825089</_>
    <_>
      -2.87828016 -10.4551811 -12.3405323 -14.270278 -27.6507072
      19.51964 -27.8428898 1.44649994 0.526950002 0.0551795959 3.
      99.3145142 0.493843079 0.493843079 0.499962091 0.272209316</_>
    <_>
      -2.8318665 -9.59770393 -12.4705553 -12.9313087 -25.6479321
      -17.8224277 26.2105961 0.283300012 0.103500001 0.0108070374 3.
      24.4371395 0.44575882 0.44575882 0.497049183 0.263825089</_>
    <_>
      -2.84656811 -11.5804081 -11.866704 -14.9749069 -28.5129452
      20.9249096 28.5855503 0.30675 0.110299997 0.0117015839 3.
      21.4364796 0.460979462 0.460979462 0.498475075 0.26282689</_>
    <_>
      -2.83666754 -9.97857475 -12.2159748 -13.8609505 27.6510925
      -18.8631382 26.9063358 0.449299991 0.203150004 0.0171394348 3.
      33.3873749 0.451519012 0.451519012 0.497644037 0.26343739</_>
    <_>
      -2.80996752 -9.07748413 -11.8270588 -14.3231239 -27.4893551
      -18.9045639 27.6307144 0.269300014 0.0939000025 0.0102729797 3.
      21.5839615 0.422790527 0.422790527 0.49400273 0.257440329</_>
    <_>
      -2.87409544 -9.96823025 -13.4208097 -13.3211288 -27.6781559
      18.3393993 -26.6944256 2.4995501 0.909749985 0.0953502655 3.
      121.905006 0.489631653 0.489631653 0.499892473 0.268009424</_>
    <_>
      -2.83969688 -11.0819569 -12.7662096 -13.3445883 26.4103775
      19.0046177 -27.0652065 0.342200011 0.154899999 0.013053894 3.
      24.6205711 0.449859619 0.449859619 0.497479588 0.26424095</_>
    <_>
      -2.87836862 -9.7011776 -12.370038 -13.8814192 27.13657 18.7737713
      27.1810284 1.41129994 0.618350029 0.0538368225 3. 72.6561508
      0.492725372 0.492725372 0.499947071 0.275102347</_>
    <_>
      -2.87190843 -9.76319122 -12.641737 -14.3878012 27.9389858
      19.2723312 28.3082581 1.50740004 0.577199996 0.0575027466 3.
      104.067795 0.486026764 0.486026764 0.499804705 0.270228356</_>
    <_>
      -2.84857607 -9.53624058 -13.8977413 -13.037138 -27.0533886
      -17.8671684 26.5226517 0.425599992 0.1963 0.0162353516 3.
      31.2786026 0.458827972 0.458827972 0.498301983 0.265314788</_>
    <_>
      -2.84048271 -10.2147655 -12.6848526 -13.2724895 26.3594017
      -18.3857288 -26.4542179 0.338699996 0.141599998 0.0129203796 3.
      27.7033119 0.456256866 0.456256866 0.498082876 0.265818477</_>
    <_>
      -2.83046579 -9.9321804 -13.2183075 -13.8169537 27.338665
      -18.9099369 28.1995792 0.318049997 0.146899998 0.0121326447 3.
      23.681921 0.442054749 0.442054749 0.496630996 0.260316461</_>
    <_>
      -2.81430101 -9.682374 -12.6303062 -12.8590698 -25.6053696
      18.0481358 26.6693649 0.214399993 0.0758500025 0.00817871094 3.
      15.7979307 0.426055908 0.426055908 0.494502038 0.261302531</_>
    <_>
      -2.82614899 -10.0472231 -12.2295141 -13.4450254 -26.5655708
      19.3867989 -26.3510189 0.266600013 0.0961000025 0.0101699829 3.
      20.7175865 0.438213348 0.438213348 0.496167719 0.263809711</_>
    <_>
      -2.83487511 -9.30112076 -12.2390928 -13.3509893 -26.2548313
      18.0214329 -26.3482227 0.266000003 0.102600001 0.0101470947 3.
      23.0363064 0.444992065 0.444992065 0.496964902 0.265684754</_>
    <_>
      -2.81584978 -9.35918427 -11.6699677 -12.5241337 -25.2039013
      -17.2488289 24.6365509 0.586199999 0.2359 0.0223617554 3.
      42.0900345 0.427280426 0.427280426 0.494683594 0.260190666</_>
    <_>
      -2.81288457 -9.23459911 -12.3829212 -12.3985634 24.8723297
      -17.0544968 -25.0382729 0.25 0.0923499987 0.00953674316 3.
      18.5982761 0.427909851 0.427909851 0.494775712 0.259750724</_>
    <_>
      -2.85482407 -10.1680584 -12.3017483 -12.5634537 24.9980564
      17.8271255 26.0147591 0.422699988 0.156100005 0.0161247253 3.
      30.5228672 0.466777802 0.466777802 0.498895079 0.272133857</_>
    <_>
      -2.80598307 -9.19753647 -11.2126951 -13.0207138 -25.1733742
      -17.8140049 25.545639 0.31674999 0.129749998 0.0120830536 3.
      23.2169247 0.418800354 0.418800354 0.493362576 0.256882399</_>
    <_>
      -2.80548286 -9.29872131 -12.5682325 -12.6742363 25.6302586
      17.3909416 -25.3477612 0.226050004 0.0792500004 0.00862312317 3.
      18.6918297 0.41676712 0.41676712 0.493023604 0.257262439</_>
    <_>
      -2.82405186 -10.2891922 -12.4484196 -13.2376738 -26.2781467
      -18.5194759 -26.1926804 0.29855001 0.106250003 0.0113887787 3.
      22.4873619 0.437831879 0.437831879 0.496120065 0.256681204</_>
    <_>
      -2.85403156 -10.0637236 -12.7471418 -12.6689348 25.6915684
      -17.8476429 25.4351025 0.632300019 0.270749986 0.0241203308 3.
      51.5855904 0.46660614 0.46660614 0.498883605 0.261844367</_>
    <_>
      -2.84988952 -10.2917318 -12.2864275 -13.958292 -27.1620178
      20.3561039 -27.3332195 0.529100001 0.237049997 0.0201835632 3.
      39.8634987 0.461483002 0.461483002 0.498514235 0.266326457</_>
    <_>
      -2.81700015 -8.94802761 -12.0959034 -12.3790741 24.6919193
      -17.605299 -24.8829708 0.344599992 0.134450004 0.0131454468 3.
      22.2842045 0.430965424 0.430965424 0.495211303 0.257742286</_>
    <_>
      -2.80949569 -9.61058235 -12.3125572 -13.0376339 -26.2259274
      -17.9346695 -25.73419 0.292899996 0.112300001 0.0111732483 3.
      19.700285 0.421379089 0.421379089 0.493780077 0.259870172</_>
    <_>
      -2.82611322 -10.6975632 -12.5615435 -14.4179287 -27.9087029
      20.2578506 -29.0683498 0.304850012 0.127299994 0.0116291046 3.
      25.2367229 0.438613892 0.438613892 0.49621743 0.247885808</_>
    <_>
      -2.84928012 -9.51429844 -13.6054935 -13.0635738 26.7075386
      -18.6706638 -26.4578476 0.508099973 0.178800002 0.0193824768 3.
      44.3995171 0.464206696 0.464206696 0.498717189 0.264726132</_>
    <_>
      -2.83862185 -9.47005463 -12.7884865 -13.5193911 26.7756348
      -18.9794292 -26.8859062 0.340550005 0.11705 0.0129909515 3.
      27.6576996 0.452281952 0.452281952 0.497717768 0.262864619</_>
    <_>
      -2.81407356 -9.22076225 -12.2617388 -13.3496065 -26.3350754
      17.9914627 26.279995 0.26304999 0.0974999964 0.0100345612 3.
      16.5208035 0.424316406 0.424316406 0.494238794 0.256021976</_>
    <_>
      -2.81481886 -10.1560326 -12.8735266 -12.9421558 25.8506966
      18.3512421 -27.0961571 0.330949992 0.140450001 0.0126247406 3.
      24.400013 0.42898941 0.42898941 0.494931817 0.263268262</_>
    <_>
      -2.83288622 -9.78229141 -12.7687998 -12.6227236 25.8708553
      -17.5193329 -25.3362541 0.275249988 0.0975999981 0.0104999542 3.
      18.8475647 0.445133209 0.445133209 0.496980518 0.260995179</_>
    <_>
      -2.81643748 -9.872612 -13.2006865 -13.0171747 -26.5406284
      -19.1035175 -26.1609459 0.277749985 0.129199997 0.0105953217 3.
      17.0986919 0.430049896 0.430049896 0.495082796 0.257564545</_>
    <_>
      -2.81987929 -10.3410511 -12.8070459 -13.5696888 27.3743153
      19.1329689 -26.7711563 0.219850004 0.0877000019 0.00838661194 3.
      18.7377586 0.432331085 0.432331085 0.495399743 0.257111192</_>
    <_>
      -2.83879566 -9.6691637 -12.3824453 -12.8547487 25.4996834
      18.4351673 25.9444637 0.297450006 0.118249997 0.011346817 3.
      23.9741249 0.451091766 0.451091766 0.497602224 0.267186821</_>
    <_>
      -2.81892681 -9.64935303 -13.0543528 -12.5025778 25.5386963
      17.367609 25.3601379 0.362699986 0.151350006 0.013835907 3.
      26.802784 0.429637909 0.429637909 0.495024413 0.259205639</_>
    <_>
      -2.85107589 -10.787075 -12.5398045 -13.5561771 26.7571163
      19.4372044 -26.7522755 0.568899989 0.248649999 0.0217018127 3.
      43.3218727 0.467372894 0.467372894 0.498934329 0.268236488</_>
    <_>
      -2.83031058 -12.1966286 -12.5463858 -15.1414223 -29.4045181
      21.5200233 29.0193653 0.224900007 0.0790000036 0.00857925415 3.
      16.9616051 0.444965363 0.444965363 0.496961951 0.262664944</_>
    <_>
      -2.82224035 -9.64697075 -12.3235216 -12.3029022 -25.0370083
      -17.9810543 24.6498642 0.297199994 0.101949997 0.0113372803 3.
      23.4533215 0.433654785 0.433654785 0.495578766 0.263003618</_>
    <_>
      -2.8569994 -9.85486794 -13.0176678 -13.0926142 26.6473579
      18.0305309 26.1706791 0.546949983 0.204549998 0.0208644867 3.
      39.4644012 0.466785431 0.466785431 0.498895586 0.269294381</_>
    <_>
      -2.83591628 -10.2030849 -12.8813896 -13.1079149 26.115509
      -18.2169971 26.7213802 0.26699999 0.112899996 0.0101852417 3.
      22.6713524 0.447689056 0.447689056 0.497256041 0.260339588</_>
    <_>
      -2.81491733 -9.80310917 -13.1512432 -13.407114 -27.2869225
      -18.5445004 26.7004032 0.292299986 0.0975499973 0.0111503601 3.
      19.4577885 0.425964355 0.425964355 0.494488358 0.262773365</_>
    <_>
      -2.81621814 -9.36065865 -11.8811979 -12.6391001 -25.2284546
      -17.4839764 -24.9530849 0.271800011 0.103550002 0.0103683472 3.
      21.9170971 0.426513672 0.426513672 0.494570285 0.261811674</_>
    <_>
      -2.82659316 -10.7249994 -13.2930784 -12.6059818 -25.5702934
      -17.977438 26.1463795 0.291599989 0.124700002 0.0111236572 3.
      20.3909664 0.440540314 0.440540314 0.496451944 0.261285543</_>
    <_>
      -2.8156116 -11.0134754 -13.1693211 -12.8412724 26.0190239
      -19.7820435 -25.9771576 0.257550001 0.0936999992 0.00982475281 3.
      23.0602551 0.431453705 0.431453705 0.495279133 0.260042608</_>
    <_>
      -2.8108077 -9.53936291 -11.7979584 -12.5821896 24.7947407
      17.3688641 -25.2759151 0.279900014 0.104000002 0.0106773376 3.
      20.0322456 0.42332077 0.42332077 0.494085312 0.254287064</_>
    <_>
      -2.82753658 -10.3566341 -12.741539 -13.1580915 26.2203026
      -18.3453884 26.3046875 0.32675001 0.141499996 0.0124645233 3.
      23.0326614 0.437679291 0.437679291 0.496100932 0.258680463</_>
    <_>
      -2.85904527 -10.0409384 -12.8468761 -12.7823315 25.5969353
      18.5241508 -28.7940559 0.70025003 0.328350008 0.0267124176 3.
      56.9772758 0.472484589 0.472484589 0.499242336 0.268411636</_>
    <_>
      -2.80568194 -9.42746449 -11.6814327 -12.8813267 27.0159264
      17.7149811 25.1627483 0.278600007 0.1109 0.0106277466 3.
      20.1091595 0.418830872 0.418830872 0.493367583 0.259941548</_>
    <_>
      -2.82942843 -9.8558836 -14.9322882 -12.5350227 26.3614235
      17.6523972 -26.4981365 0.290149987 0.109250002 0.0110683441 3.
      20.2333927 0.438720703 0.438720703 0.496230632 0.261729389</_>
    <_>
      -2.84542799 -9.37687397 -12.2387619 -13.2246628 25.977747
      17.9299297 -26.4704323 0.405449986 0.138699993 0.0154666901 3.
      30.7225513 0.453742981 0.453742981 0.497855693 0.267403305</_>
    <_>
      -2.91290331 -12.4282675 -13.0027323 -12.6940708 25.5436726
      -18.9121685 -26.6717453 11.2041998 7.99450016 0.427406311 3.
      357.195801 0.536827087 0.536827087 0.498641908 0.270234138</_>
    <_>
      -2.84684539 -9.77210999 -12.1998405 -15.2476969 29.0266209
      -20.3600254 29.2960415 0.506099999 0.217749998 0.0193061829 3.
      38.8932037 0.460582733 0.460582733 0.498443872 0.267690986</_>
    <_>
      -2.82526302 -10.535779 -13.2674522 -12.4885368 -25.7826881
      18.3507862 -25.4010887 0.261550009 0.09155 0.0099773407 3.
      22.1265297 0.4402771 0.4402771 0.496420354 0.26540944</_>
    <_>
      -2.85342002 -9.75234699 -12.4601879 -13.4067736 -26.3678951
      -18.2855721 26.8015251 0.615100026 0.232700005 0.0234642029 3.
      43.1343231 0.468353271 0.468353271 0.49899748 0.260378182</_>
    <_>
      -2.8248291 -10.4027853 -12.0663805 -12.3174162 24.6179295
      17.5294456 -24.7117939 0.347750008 0.136449993 0.0132656097 3.
      24.6126614 0.434577942 0.434577942 0.495701492 0.262469232</_>
    <_>
      -2.81355357 -9.28511238 -13.260458 -12.7651634 -25.8609028
      18.1809578 -26.0271454 0.290549994 0.1065 0.0110836029 3.
      22.8741837 0.42375946 0.42375946 0.494153202 0.262871385</_>
    <_>
      -2.82116723 -10.6512136 -12.1558628 -12.6171694 25.5056934
      -18.242672 -25.0263405 0.247400001 0.106849998 0.00943756104 3.
      20.7481232 0.431999207 0.431999207 0.495354295 0.257454842</_>
    <_>
      -2.87494206 -10.4655428 -13.717267 -12.858037 26.164299
      -18.1546135 -26.6884251 1.45560002 0.824599981 0.0555267334 3.
      89.0467758 0.486965179 0.486965179 0.499830067 0.270273566</_>
    <_>
      -2.83341026 -10.5107555 -12.8642902 -13.4376011 -26.5886192
      -18.7373962 -28.3250465 0.311399996 0.142199993 0.0118789673 3.
      25.0571404 0.449222565 0.449222565 0.497414976 0.265222162</_>
    <_>
      -2.85536647 -11.4678764 -13.6156273 -13.6040478 -28.2302914
      -19.4280853 27.2159081 0.691349983 0.327100009 0.0263729095 3.
      45.4776802 0.471370697 0.471370697 0.499179691 0.270395398</_>
    <_>
      -2.80578613 -9.38751602 -12.9509563 -13.1853371 -26.6483536
      -18.529892 -26.2919331 0.347750008 0.123450004 0.0132656097 3.
      24.5995235 0.420963287 0.420963287 0.493713677 0.258833319</_>
    <_>
      -2.79518533 -9.10762215 -11.2877645 -12.1945095 -23.9396324
      -16.8321285 24.8057995 0.26245001 0.0896999985 0.010011673 3.
      18.7053108 0.416599274 0.416599274 0.492995262 0.259402812</_>
    <_>
      -2.83890963 -10.3780022 -12.8665676 -12.6098871 25.5377903
      -17.8017616 25.4654636 0.338 0.138850003 0.0128936768 3.
      26.2639008 0.451564789 0.451564789 0.497648507 0.264099538</_>
    <_>
      -2.87777233 -10.2709551 -13.5627775 -13.3363028 26.8417664
      19.1066761 -27.1077824 1.77995002 0.722299993 0.067899704 3.
      98.390419 0.493419647 0.493419647 0.499956697 0.270329535</_>
    <_>
      -2.8767724 -9.53032207 -12.1375008 -13.358346 -26.2454815
      18.1238251 26.2687073 1.29454994 0.59315002 0.0493831635 3.
      75.8987198 0.49313736 0.49313736 0.499952912 0.270607859</_>
    <_>
      -2.85560322 -10.4773035 -11.9297647 -13.3916388 26.5967693
      -18.7328014 26.0708008 0.571699977 0.198850006 0.0218086243 3.
      47.4277039 0.470283508 0.470283508 0.499116153 0.269508749</_>
    <_>
      -2.82062364 -9.34140015 -11.648242 -13.6377201 -26.2861252
      -18.3113689 -27.0846367 0.271899998 0.100299999 0.0103721619 3.
      16.9247932 0.433624268 0.433624268 0.495574683 0.264065325</_>
    <_>
      -2.85389876 -10.3573675 -12.7973146 -13.0989399 -26.0886936
      -18.9045143 -26.4262428 0.724150002 0.354000002 0.0276241302 3.
      39.9345932 0.468723297 0.468723297 0.499020815 0.264534324</_>
    <_>
      -2.82934451 -10.1306238 -12.326725 -13.9858685 -27.726366
      19.5202065 -27.157423 0.252750009 0.0924500003 0.00964164734 3.
      21.2103062 0.4425354 0.4425354 0.496686846 0.264779657</_>
    <_>
      -2.83314919 -10.9981441 -12.7918711 -12.497756 25.34552
      -18.3895512 25.2508812 0.341650009 0.150350004 0.0130329132 3.
      30.2530899 0.445560455 0.445560455 0.497027487 0.259368807</_>
    <_>
      -2.80397367 -8.95597935 -12.0841913 -12.4968805 25.2038441
      -16.9754887 -24.821928 0.357600003 0.149949998 0.0136413574 3.
      27.8242054 0.420269012 0.420269012 0.493602037 0.257241875</_>
    <_>
      -2.81050801 -9.77608204 -12.5738478 -13.0002546 27.7737904
      -18.4074421 25.7873287 0.324050009 0.131799996 0.0123615265 3.
      22.4437885 0.425178528 0.425178528 0.494370043 0.260265976</_>
    <_>
      -2.81135368 -9.31184578 -12.1783686 -12.3963203 24.7584648
      17.4386787 24.9514179 0.408149987 0.153899997 0.0155696869 3.
      28.3454533 0.420707703 0.420707703 0.493672699 0.258729964</_>
    <_>
      -2.82695222 -10.1784477 -12.1976852 -12.4202099 -25.7067833
      17.5134773 -24.7315788 0.332749993 0.112499997 0.0126934052 3.
      20.3783474 0.44134903 0.44134903 0.496548146 0.260873467</_>
    <_>
      -2.81275702 -9.7873888 -12.1359739 -13.7757168 27.6903496
      18.8437767 26.7342052 0.195299998 0.0759999976 0.00745010376 3.
      14.0557775 0.424640656 0.424640656 0.494288355 0.258590072</_>
    <_>
      -2.85356784 -9.4282856 -11.94524 -13.6833887 -26.5024128
      -18.4343014 -27.3319073 0.631099999 0.273600012 0.0240745544 3.
      51.2963715 0.469028473 0.469028473 0.499039829 0.269096464</_>
    <_>
      -2.7996161 -9.40211868 -12.8137665 -13.0007381 -25.9661503
      -17.7102165 26.2224884 0.35255 0.12985 0.0134487152 3. 24.5358486
      0.417583466 0.417583466 0.493160725 0.25571841</_>
    <_>
      -2.79346538 -10.0458546 -11.383688 -12.3846178 -24.2813396
      17.8134823 24.8937607 0.281749994 0.0961500034 0.0107479095 3.
      19.761879 0.411754608 0.411754608 0.492151141 0.251645237</_>
    <_>
      -2.84033298 -10.5119057 -12.5997276 -13.1850281 26.7668762
      -18.8358231 26.0866756 0.408549994 0.17735 0.0155849457 3.
      34.4524002 0.451007843 0.451007843 0.497593969 0.265673488</_>
    <_>
      -2.85867715 -9.92649841 -12.5181198 -13.4715071 26.5540962
      -18.4373188 -26.7054195 0.562399983 0.204750001 0.0214538574 3.
      40.0094261 0.47410202 0.47410202 0.499328852 0.2707102</_>
    <_>
      -2.84834003 -10.229414 -13.0604105 -13.4110346 -26.7828999
      -19.1986809 26.8126659 0.461899996 0.195649996 0.0176200867 3.
      38.4603081 0.46762085 0.46762085 0.498950481 0.269249886</_>
    <_>
      -2.83286166 -9.36891747 -12.2077007 -12.44872 -24.8789082
      -17.1477795 24.9900532 0.435799986 0.256399989 0.0166244507 3.
      34.7572823 0.444503784 0.444503784 0.496910632 0.265936881</_>
    <_>
      -2.8576951 -11.0017672 -12.7650719 -12.7226906 -25.4700356
      -18.3963585 -26.3668785 5.92035007 2.78775001 0.22584343 3.
      312.993073 0.470878601 0.470878601 0.49915123 0.253432631</_>
    <_>
      -2.821944 -9.60568619 -12.5366058 -13.2056046 26.1011677
      18.5206242 26.562994 0.336400002 0.117299996 0.0128326416 3.
      24.9199409 0.431053162 0.431053162 0.495223522 0.262103975</_>
    <_>
      -2.8651135 -9.47602558 -12.5273752 -13.396163 26.5838032
      18.1774979 26.4526119 1.10380006 0.495000005 0.0421066284 3.
      76.7662048 0.480995178 0.480995178 0.499638677 0.268865198</_>
    <_>
      -2.83473992 -9.43267822 -11.7716188 -13.106514 25.7293701
      -18.1067753 25.6672478 0.341149986 0.148699999 0.0130138397 3.
      20.9856968 0.445152283 0.445152283 0.496982634 0.2627801</_>
    <_>
      -2.82406855 -9.8433857 -12.4050398 -13.3286715 26.430109
      18.3497524 26.2855911 0.242349997 0.0909999982 0.00924491882 3.
      19.7537384 0.436115265 0.436115265 0.495901942 0.263018638</_>
    <_>
      -2.85033441 -10.2481718 -12.1605616 -13.2466497 -26.5005341
      18.3725052 -25.9682045 0.437900007 0.160249993 0.0167045593 3.
      32.58041 0.463375092 0.463375092 0.498656809 0.26772362</_>
    <_>
      -2.83268714 -10.2706327 -12.4527664 -12.8860903 -25.9992237
      18.2663116 25.585659 0.333249986 0.114299998 0.0127124786 3.
      23.815403 0.445075989 0.445075989 0.4969742 0.261949182</_>
    <_>
      -2.84474611 -9.16531467 -13.5420418 -12.6369371 -26.6194057
      -17.436409 25.730011 0.461349994 0.233400002 0.0175991058 3.
      36.3325424 0.456825256 0.456825256 0.498132467 0.26664266</_>
    <_>
      -2.81250477 -9.78110313 -11.7788811 -12.6783752 -25.1316051
      18.5008965 -25.0023785 0.26335001 0.0987000018 0.0100460052 3.
      20.0258999 0.428134918 0.428134918 0.494808465 0.2624439</_>
    <_>
      -2.87391973 -11.4985743 -12.8060856 -13.285512 26.3708153
      -19.0454884 26.7208138 1.48520005 0.581650019 0.0566558838 3.
      91.5799103 0.490203857 0.490203857 0.499904037 0.27164802</_>
    <_>
      -2.86363554 -9.83765984 -13.0833578 -13.8721333 27.3516159
      18.9120464 -28.3990383 1.58354998 0.634199977 0.0604076385 3.
      115.625061 0.479797363 0.479797363 0.499591678 0.266763806</_>
    <_>
      -2.83880162 -9.47248173 -11.8618374 -13.0769825 25.548645
      -18.7211266 26.5395775 0.400400013 0.174199998 0.0152740479 3.
      29.5309067 0.451068878 0.451068878 0.497599989 0.262924373</_>
    <_>
      -2.82214952 -9.53474998 -12.5440063 -12.6483011 25.2957153
      -17.6984959 25.5830669 0.318599999 0.128450006 0.0121536255 3.
      24.716753 0.43391037 0.43391037 0.495612919 0.260293484</_>
    <_>
      -2.80374384 -9.13301086 -11.8226223 -13.3315716 -26.047554
      17.9847393 -26.0714684 0.317000002 0.142250001 0.0120925903 3.
      24.3395958 0.418937683 0.418937683 0.493385136 0.258989304</_>
    <_>
      -2.82951283 -9.95888901 -12.8771095 -12.8608961 -26.0179329
      -19.1405373 -25.7968788 0.380349994 0.156849995 0.014509201 3.
      29.1000118 0.439876556 0.439876556 0.496372014 0.262146533</_>
    <_>
      -2.81528115 -8.90960979 -13.2677021 -12.4943714 -25.3767452
      17.4232922 -26.4812965 0.293599993 0.119099997 0.0111999512 3.
      20.9550877 0.429931641 0.429931641 0.495066077 0.261191577</_>
    <_>
      -2.80970049 -9.56299114 -11.5274878 -12.4434557 -24.5268879
      -17.2269707 24.6489239 0.289799988 0.105750002 0.0110549927 3.
      21.8017063 0.423431396 0.423431396 0.494102478 0.261116743</_>
    <_>
      -2.82668209 -9.16325474 -11.5189371 -12.0876541 -24.3224373
      -16.7299156 23.9229679 0.395649999 0.141049996 0.0150928497 3.
      25.7306519 0.437023163 0.437023163 0.496018052 0.258414805</_>
    <_>
      -2.8200798 -9.13948631 -12.5273895 -13.1408539 26.1164112
      -19.0274849 26.1349659 0.243149996 0.0837000012 0.0092754364 3.
      18.7243767 0.43497467 0.43497467 0.495753676 0.261064321</_>
    <_>
      -2.80397463 -9.07164097 -12.6980696 -12.3928509 -24.9404984
      -17.3770924 25.9379749 0.279850006 0.12325 0.0106754303 3.
      16.9016361 0.420345306 0.420345306 0.493614346 0.260787159</_>
    <_>
      -2.86593223 -9.81488228 -12.3576241 -12.9704027 25.6358604
      -17.994379 26.723568 3.54270005 1.51839995 0.13514328 3.
      220.061829 0.482746124 0.482746124 0.499702215 0.257153451</_>
    <_>
      -2.84480381 -10.2356434 -12.7154303 -14.6333303 -29.3114319
      -19.7682152 28.3098564 0.389200002 0.152799994 0.0148468018 3.
      29.1266441 0.457427979 0.457427979 0.498184323 0.26645878</_>
    <_>
      -2.82993841 -10.588459 -11.9384861 -14.8470993 -28.3049202
      20.3326492 28.5334206 0.249349996 0.106650002 0.00951194763 3.
      20.0814342 0.443996429 0.443996429 0.496853709 0.260967493</_>
    <_>
      -2.81023932 -10.1033535 -11.4748106 -13.2253723 25.5899067
      -18.2825909 26.1711922 0.215900004 0.0746499971 0.0082359314 3.
      15.3440619 0.423675537 0.423675537 0.494140238 0.261803478</_>
    <_>
      -2.81953812 -10.3191843 -13.0913219 -12.4944763 -25.4475307
      -17.6547184 -25.4286613 0.33860001 0.156200007 0.0129165649 3.
      23.3916569 0.429367065 0.429367065 0.494985849 0.261226267</_>
    <_>
      -2.81383157 -9.38492298 -12.446187 -12.2620831 24.6662693
      19.3310738 24.9594269 0.309100002 0.108450003 0.0117912292 3.
      21.3002853 0.428607941 0.428607941 0.494876921 0.263466954</_>
    <_>
      -2.80653405 -9.41669083 -13.2748938 -12.4591761 26.0719452
      -17.5694294 25.3333302 0.306400001 0.111850001 0.0116882324 3.
      19.305727 0.422019958 0.422019958 0.493881673 0.260076433</_>
    <_>
      -2.81302929 -9.57257652 -12.2454329 -12.6143188 -26.030117
      -17.4327202 25.046524 0.400449991 0.137700006 0.0152759552 3.
      30.659668 0.428676605 0.428676605 0.494886816 0.259804606</_>
    <_>
      -2.7872529 -9.45269489 -12.4996519 -14.0755482 27.5574722
      -18.823698 -27.4772263 0.329149991 0.128250003 0.012556076 3.
      23.4924183 0.408317566 0.408317566 0.491522461 0.254273593</_>
    <_>
      -2.82734871 -9.93712711 -12.6191759 -14.5048876 28.9920902
      -19.4736519 -28.0700054 0.263200015 0.106650002 0.0100402832 3.
      17.9656258 0.442749023 0.442749023 0.496711522 0.262655795</_>
    <_>
      -2.8238318 -9.3611393 -11.7543507 -12.9038649 -25.271719
      17.7102718 25.6263199 0.225050002 0.0803999975 0.0085849762 3.
      14.2447224 0.439697266 0.439697266 0.496350259 0.261410415</_>
    <_>
      -2.83617687 -10.485754 -14.0291758 -13.5853338 27.5553608
      -18.859911 -27.5315018 0.325300008 0.123999998 0.0124092102 3.
      24.2842464 0.449699402 0.449699402 0.497463405 0.263920575</_>
    <_>
      -2.81170011 -10.2816257 -12.0112782 -13.5600281 26.8213463
      19.0805244 26.3714409 0.194350004 0.0681999996 0.00741386414 3.
      16.2283974 0.423679352 0.423679352 0.494140834 0.253437072</_>
    <_>
      -2.84451556 -9.56600761 -12.5546312 -13.2067833 -26.0946636
      17.9898682 26.8315411 0.521200001 0.214849994 0.0198822021 3.
      41.0387878 0.459568024 0.459568024 0.498362571 0.26020813</_>
    <_>
      -2.82129645 -10.7583275 -12.3151941 -12.7175331 -25.5383739
      19.584177 -25.295229 0.235599995 0.0885500014 0.00898742676 3.
      12.5337677 0.430625916 0.430625916 0.495163858 0.26261434</_>
    <_>
      -2.85756397 -9.35651016 -12.2223663 -13.1353779 26.584465
      -17.8209972 25.8205986 5.79699993 2.90844989 0.221138 3. 285.57486
      0.472808838 0.472808838 0.499260098 0.257553011</_>
    <_>
      -2.82183099 -9.16538143 -12.6729326 -12.7688103 -26.3354778
      -17.5102367 -25.4941444 0.486600012 0.185550004 0.0185623169 3.
      36.0415039 0.436946869 0.436946869 0.496008366 0.262953222</_>
    <_>
      -2.84091282 -9.68950462 -11.9529362 -13.2853489 -25.9047222
      18.2318497 27.3899689 0.415399998 0.162750006 0.0158462524 3.
      26.632185 0.453651428 0.453651428 0.49784717 0.26346159</_>
    <_>
      -2.80618358 -10.1494741 -11.7379007 -12.8173361 -25.7246647
      19.6256027 25.1072445 0.322250009 0.148900002 0.0122928619 3.
      21.7689857 0.41954422 0.41954422 0.493484408 0.262172163</_>
    <_>
      -2.81618977 -9.00696182 -11.8652868 -12.1019144 -24.1909542
      -16.7204971 -24.2929821 0.336650014 0.1338 0.0128421783 3.
      23.5292301 0.42987442 0.42987442 0.49505797 0.257876128</_>
    <_>
      -2.8215611 -10.2838888 -11.7027292 -13.0420399 25.5087147
      -18.2052689 -25.6410084 0.353249997 0.129099995 0.0134754181 3.
      23.448885 0.433353424 0.433353424 0.495538324 0.262337297</_>
    <_>
      -2.84328556 -9.40305233 -12.5917358 -13.0529261 -25.8752728
      -19.3840809 27.9310875 0.489100009 0.189950004 0.0186576843 3.
      34.2814445 0.454654694 0.454654694 0.497939557 0.262176037</_>
    <_>
      -2.82171202 -10.5840254 -12.9998798 -13.7962532 -27.8660545
      -19.0947189 27.2043972 0.235499993 0.0966499969 0.00898361206 3.
      17.427393 0.431186676 0.431186676 0.495242089 0.261808574</_>
    <_>
      -2.82020235 -9.98902798 -12.3513842 -12.4652643 -24.9139137
      -17.5529289 -25.2590294 0.241099998 0.0824000016 0.00919723511 3.
      18.2733212 0.433807373 0.433807373 0.49559918 0.262548178</_>
    <_>
      -2.87765813 -10.0411568 -12.7952042 -13.4164429 26.71661
      -18.6044369 26.6363316 2.82599998 1.69515002 0.107803345 3.
      197.851074 0.494125366 0.494125366 0.499965489 0.268243581</_>
    <_>
      -2.81404257 -9.49922371 -11.9492836 -12.2794533 24.9941864
      -17.0745354 24.4079494 0.333350003 0.130099997 0.0127162933 3.
      23.7209454 0.426006317 0.426006317 0.494494617 0.258928597</_>
    <_>
      -2.81881142 -9.22567368 -11.9586716 -12.8663826 26.717041
      -17.861496 25.2791996 0.250750005 0.0856000036 0.00956535339 3.
      18.5912399 0.433475494 0.433475494 0.495554715 0.262851298</_>
    <_>
      -2.83630228 -9.34718704 -12.092062 -12.9994812 25.7722263
      17.7160511 25.6393337 0.302949995 0.123949997 0.0115566254 3.
      21.5713825 0.44562149 0.44562149 0.497034192 0.264379442</_>
    <_>
      -2.85193658 -11.5501699 -14.0203438 -12.924283 -26.5461483
      -18.984211 -26.5480785 0.567200005 0.272350013 0.0216369629 3.
      48.1662827 0.462688446 0.462688446 0.498605907 0.268776447</_>
    <_>
      -2.83757567 -10.1478195 -14.0701847 -13.8875265 28.045599
      18.9637737 -27.9915504 0.299349993 0.108099997 0.0114192963 3.
      20.0804996 0.450447083 0.450447083 0.497538447 0.268330157</_>
    <_>
      -2.88776064 -10.3787384 -13.56077 -13.8098536 -27.5141811
      19.1926327 28.0334206 2.06780005 0.907999992 0.0788803101 3.
      129.047363 0.504837036 0.504837036 0.499976605 0.273850948</_>
    <_>
      -2.81915832 -10.6418285 -11.541502 -12.7347775 24.8773499
      -19.4893513 -25.7201767 0.333950013 0.145999998 0.0127391815 3.
      22.3469753 0.432701111 0.432701111 0.495450169 0.260109931</_>
    <_>
      -2.8709569 -10.7940578 -12.4681044 -13.766511 -27.6655025
      -20.28792 26.8898373 1.24179995 0.517750025 0.0473709106 3.
      73.5637054 0.485282898 0.485282898 0.499783367 0.270690948</_>
    <_>
      -2.8105917 -9.52982712 -12.982316 -13.122035 -26.1756172
      -18.2986965 27.2691536 0.274599999 0.0979499966 0.0104751587 3.
      20.2514133 0.423107147 0.423107147 0.494052112 0.259068638</_>
    <_>
      -2.81815124 -10.8822117 -12.2911472 -11.8744669 -24.2109852
      -17.8508167 24.0381241 0.357499987 0.130099997 0.0136375427 3.
      26.672245 0.431022644 0.431022644 0.49521926 0.261879623</_>
    <_>
      -2.82143164 -9.80836296 -12.8316879 -12.8012094 25.6861286
      17.8682518 -25.901619 0.413850009 0.171800002 0.0157871246 3.
      29.7508945 0.43271637 0.43271637 0.495452225 0.258002639</_>
    <_>
      -2.86516237 -11.0044756 -12.5715532 -13.2245493 26.3468952
      -18.7742767 26.2181473 0.905250013 0.365649998 0.034532547 3.
      71.0040817 0.480709076 0.480709076 0.499627709 0.272450447</_>
    <_>
      -2.84580088 -10.5475521 -13.516346 -13.0055189 -26.4021282
      18.4478588 -26.4328918 0.351599991 0.140650004 0.0134124756 3.
      28.3820343 0.459522247 0.459522247 0.498358846 0.269398391</_>
    <_>
      -2.82225275 -9.94719696 -13.6428099 -13.2889004 27.1959572
      -18.2624989 26.7852707 0.26820001 0.0909999982 0.0102310181 3.
      20.1547432 0.439258575 0.439258575 0.496296763 0.263198674</_>
    <_>
      -2.89382863 -10.0576525 -13.1610823 -13.9454002 -27.6354389
      18.9853935 -27.6637993 6.71554995 3.97285008 0.256177902 3.
      271.851562 0.512348175 0.512348175 0.499847502 0.273409486</_>
    <_>
      -2.82639241 -9.39828682 -12.6665096 -11.8609266 24.2687569
      18.3838902 24.2817574 0.323799998 0.113349997 0.0123519897 3.
      21.49259 0.433704376 0.433704376 0.495585412 0.262555242</_>
    <_>
      -2.82889509 -10.1936312 -13.9974585 -12.3628168 25.8185711
      -18.0042629 25.614603 0.335000008 0.123750001 0.0127792358 3.
      24.7470474 0.438335419 0.438335419 0.496182919 0.262555122</_>
    <_>
      -2.82992697 -9.84097672 -12.263175 -12.9216251 -25.5147114
      -17.9223461 -26.7645683 0.393150002 0.17735 0.0149974823 3.
      31.9993649 0.442367554 0.442367554 0.496667385 0.261049062</_>
    <_>
      -2.81398058 -9.25301266 -13.5282631 -11.9145031 25.6201286
      -16.5412178 24.6382332 0.361600012 0.154949993 0.0137939453 3.
      23.5136662 0.428634644 0.428634644 0.494880766 0.259551704</_>
    <_>
      -2.81442285 -9.87822914 -12.2082157 -12.4164219 -24.7375107
      -17.3772736 25.4300022 0.353949994 0.136899993 0.013502121 3.
      26.9431992 0.423347473 0.423347473 0.494089454 0.261422902</_>
    <_>
      -2.82332087 -9.96076584 -12.1926174 -12.9284048 25.7198029
      -17.9379463 -25.5809021 0.319849998 0.112999998 0.0122013092 3.
      22.2357483 0.43434906 0.43434906 0.495671213 0.262173086</_>
    <_>
      -2.8360002 -10.0368919 -13.0858974 -13.3451338 26.5825176
      18.7260132 -27.0699615 0.297199994 0.104050003 0.0113372803 3.
      20.1932201 0.451179504 0.451179504 0.497610837 0.263028473</_>
    <_>
      -2.8092041 -9.73616791 -12.0692787 -11.9737043 24.1198215
      -17.0288277 24.175108 0.281800002 0.100249998 0.0107498169 3.
      22.9104786 0.426559448 0.426559448 0.49457708 0.257781863</_>
    <_>
      -2.81781745 -10.3309078 -12.1827021 -13.0695486 26.1564999
      18.2536945 25.7233753 0.286749989 0.105350003 0.0109386444 3.
      21.8689861 0.424900055 0.424900055 0.494327813 0.257031679</_>
    <_>
      -2.807616 -10.0648985 -11.8759384 -13.1930046 -25.8066521
      18.4582214 25.9849453 0.294499993 0.110150002 0.0112342834 3.
      23.1239605 0.417755127 0.417755127 0.493189394 0.257510126</_>
    <_>
      -2.8212676 -9.89295959 -12.5417881 -12.6854544 -25.3133869
      18.6606693 25.8967266 0.331800014 0.169 0.0126571655 3. 23.4999409
      0.433521271 0.433521271 0.495560884 0.264693916</_>
    <_>
      -2.80451298 -9.44217205 -11.7459402 -12.5283203 24.6690845
      17.8252468 25.5554142 0.284949988 0.0966999978 0.0108699799 3.
      19.6010475 0.418506622 0.418506622 0.493314117 0.260128468</_>
    <_>
      -2.81247258 -10.2562208 -12.222064 -13.1736183 -25.9396191
      18.7235584 26.1562614 0.273499995 0.123800002 0.010433197 3.
      21.8405304 0.424892426 0.424892426 0.494326651 0.262294084</_>
    <_>
      -2.82034564 -9.23123837 -11.8240433 -12.3319578 24.4174824
      17.7485332 25.1438408 0.282449991 0.110799998 0.0107746124 3.
      18.5158482 0.432407379 0.432407379 0.495410174 0.261743963</_>
    <_>
      -2.81720138 -8.8923912 -11.8204803 -13.2275028 26.0742149
      -18.6842995 -25.8071899 0.403349996 0.150549993 0.0153865814 3.
      24.846632 0.430534363 0.430534363 0.495151013 0.25608331</_>
    <_>
      -2.83883739 -9.51650906 -12.6605158 -13.0329523 26.0541248
      -18.083847 26.0086536 0.476449996 0.219899997 0.0181751251 3.
      37.5583305 0.449954987 0.449954987 0.497489184 0.262112975</_>
    <_>
      -2.87412858 -10.0925274 -12.5328474 -13.1018944 -26.4051895
      -18.4812965 -25.9437656 1.90269995 0.961650014 0.0725822449 3.
      121.052872 0.489723206 0.489723206 0.499894381 0.270365149</_>
    <_>
      -2.83630466 -10.0363159 -12.9375515 -12.7747183 -25.6359367
      17.7991886 -26.4487133 0.346399993 0.134000003 0.0132141113 3.
      26.3022366 0.451328278 0.451328278 0.497625411 0.265994012</_>
    <_>
      -2.86736131 -9.63921738 -12.581459 -13.1296997 26.1811314
      18.0150986 26.0983086 0.913399994 0.347799987 0.0348434448 3.
      63.511219 0.480484009 0.480484009 0.499618977 0.271716505</_>
    <_>
      -2.85500383 -10.0676203 -12.36625 -13.1210527 25.9467697
      -18.2328339 -26.1157455 0.371699989 0.153799996 0.0141792297 3.
      30.3351707 0.470355988 0.470355988 0.499120444 0.269987404</_>
    <_>
      -2.80158067 -9.06659889 -12.7238941 -12.4945002 25.933939
      -18.4044132 25.1084957 0.29975 0.11005 0.0114345551 3. 19.7786922
      0.412250519 0.412250519 0.492239803 0.258506149</_>
    <_>
      -2.86347747 -9.46357632 -13.3380146 -12.8857946 26.0275764
      17.6770725 -26.4431782 0.775749981 0.277949989 0.029592514 3.
      53.520565 0.478786469 0.478786469 0.499549776 0.273263127</_>
    <_>
      -2.83238053 -10.1324997 -12.9227362 -12.6610622 25.476902
      17.7371826 -25.9436321 0.407400012 0.189850003 0.0155410767 3.
      32.8786011 0.441638947 0.441638947 0.496582299 0.251980662</_>
    <_>
      -2.82879663 -9.62201691 -12.5693045 -13.2568626 26.2249317
      -18.1149006 26.4951096 0.249599993 0.0958499983 0.00952148438 3.
      18.6390076 0.438488007 0.438488007 0.496201843 0.261953354</_>
    <_>
      -2.86973381 -9.64269447 -12.9781971 -13.8271246 -27.4163113
      18.6530418 -27.3494205 1.37800002 0.569450021 0.0525665283 3.
      90.9709396 0.484096527 0.484096527 0.499747008 0.267598361</_>
    <_>
      -2.83079886 -11.2308846 -13.0648222 -13.0801373 -26.1703148
      19.27668 26.7058125 0.224600002 0.0781000033 0.00856781006 3.
      16.1227837 0.442615509 0.442615509 0.496696115 0.263380826</_>
    <_>
      -2.82072091 -9.80930042 -11.9651804 -13.5002069 -26.2375011
      -18.7529144 -27.072155 0.390049994 0.144800007 0.0148792267 3.
      25.3965797 0.433029175 0.433029175 0.495494604 0.256159037</_>
    <_>
      -2.86419034 -9.58438396 -12.297967 -13.6151209 -27.263113
      -18.4429188 -26.5808487 0.894999981 0.410050005 0.0341415405 3.
      66.3409195 0.479034424 0.479034424 0.499560237 0.269428432</_>
    <_>
      -2.85134792 -10.0998592 -12.7719622 -12.9264631 -25.8107376
      -18.4005642 26.1889305 0.639199972 0.222949997 0.0243835449 3.
      47.2863808 0.467124939 0.467124939 0.498918056 0.269397825</_>
    <_>
      -2.87575316 -9.9148159 -12.8392916 -13.1422949 -26.3464565
      18.4840775 26.2349167 0.95934999 0.330900013 0.0365962982 3.
      75.3671112 0.491004944 0.491004944 0.499919087 0.270657957</_>
    <_>
      -2.82972813 -10.7515059 -12.0810785 -13.0230227 -25.5965023
      18.3989773 26.0885868 0.250849992 0.0935499966 0.00956916809 3.
      20.2577591 0.441947937 0.441947937 0.496618509 0.264488786</_>
    <_>
      -2.83219743 -9.33093357 -12.2614756 -13.2317667 26.12253
      -19.1305141 26.1354694 0.342750013 0.119649999 0.0130748749 3.
      21.981678 0.447036743 0.447036743 0.497186989 0.264282256</_>
    <_>
      -2.84833121 -9.92544842 -12.6942053 -13.6602745 -26.8612118
      19.0370941 -27.3302822 4.38044977 1.87755001 0.167100906 3.
      246.794098 0.458641052 0.458641052 0.498286515 0.251267374</_>
    <_>
      -2.82470632 -10.0918522 -12.2533817 -13.3686152 -26.3881187
      18.4590778 -26.2844048 0.278149992 0.102049999 0.0106105804 3.
      20.3769264 0.435024261 0.435024261 0.495760173 0.263669848</_>
    <_>
      -2.82587194 -10.4487324 -12.5574045 -12.8468714 25.5930004
      18.0735168 -25.9173317 0.216499999 0.0751999989 0.00825881958 3.
      15.5902348 0.437614441 0.437614441 0.496092767 0.266779304</_>
    <_>
      -2.79920006 -9.19058609 -11.4693737 -13.5781584 -26.4191437
      18.4058247 -26.1592541 0.258650005 0.0922000036 0.00986671448 3.
      15.4705086 0.41450882 0.41450882 0.492637038 0.25886777</_>
    <_>
      -2.88243389 -9.98163319 -12.5484219 -13.2921267 26.5345364
      18.3050137 -26.2682667 1.73675001 0.671750009 0.0662517548 3.
      88.4006729 0.497150421 0.497150421 0.499991894 0.274640471</_>
    <_>
      -2.85280871 -11.1255751 -13.4329119 -13.4532843 -27.8989582
      19.1156807 26.8985386 0.48785001 0.183650002 0.0186100006 3.
      33.4196091 0.467781067 0.467781067 0.498960853 0.269650936</_>
    <_>
      -2.83227277 -9.44856167 -12.6845169 -12.4195938 -25.8582287
      -17.1582737 24.9753418 0.457749993 0.183200002 0.0174617767 3.
      31.7717705 0.444789886 0.444789886 0.49694249 0.262635261</_>
    <_>
      -2.83055687 -10.341341 -12.3267355 -12.656539 -25.2707005
      -18.1235809 25.3308315 0.332500011 0.122599997 0.0126838684 3.
      24.3458691 0.439990997 0.439990997 0.496385872 0.262897313</_>
    <_>
      -2.83386827 -9.61875439 -12.3690138 -12.4160347 -24.8099365
      17.2786541 25.9079628 0.294699997 0.119599998 0.0112419128 3.
      20.8395958 0.44084549 0.44084549 0.496488422 0.263717502</_>
    <_>
      -2.79785109 -9.49446392 -12.0591869 -12.9676428 -25.933567
      17.7405396 -25.5099163 0.221699998 0.0952000022 0.00845718384 3.
      16.0843067 0.414321899 0.414321899 0.492604584 0.257332027</_>
    <_>
      -2.83163428 -10.0957232 -12.7283802 -12.7588844 25.8066196
      -18.3061981 25.5639706 0.285650015 0.0982000008 0.0108966827 3.
      21.9039307 0.444789886 0.444789886 0.49694249 0.2655617</_>
    <_>
      -2.82145953 -10.2820272 -12.20998 -14.4383287 27.7625141
      -20.0334282 29.6913204 0.324699998 0.119350001 0.012386322 3.
      22.9795952 0.437618256 0.437618256 0.496093243 0.262609392</_>
    <_>
      -2.85686564 -9.68247795 -13.6410112 -13.8387861 27.7021427
      -18.7157516 -27.7601166 0.547150016 0.194900006 0.0208721161 3.
      43.5836105 0.470069885 0.470069885 0.499103397 0.269106358</_>
    <_>
      -2.8422811 -9.79739571 -12.5249977 -14.07833 -27.6410065
      19.1427727 27.4576283 0.342299998 0.121600002 0.0130577087 3.
      24.9292412 0.458896637 0.458896637 0.498307645 0.269604474</_>
    <_>
      -2.81076694 -9.51749516 -13.0222206 -12.4969587 -25.2739754
      17.667429 25.8129597 0.255400002 0.0899500027 0.00974273682 3.
      18.1108246 0.426013947 0.426013947 0.494495779 0.250433683</_>
    <_>
      -2.83424759 -9.80815029 -12.3498688 -13.5121975 -26.4600735
      -18.834898 -27.0067692 0.372500002 0.138500005 0.0142097473 3.
      26.6237583 0.446689606 0.446689606 0.497149885 0.261585772</_>
    <_>
      -2.82195187 -9.75531864 -13.5808973 -14.1378622 -28.1882267
      -19.2527637 28.113657 0.354299992 0.190699995 0.0135154724 3.
      24.7933216 0.433235168 0.433235168 0.49552241 0.262364775</_>
    <_>
      -2.81267691 -10.9861794 -12.1219807 -13.1058931 -25.760046
      18.8662987 -26.1058025 0.214849994 0.091049999 0.00819587708 3.
      16.3489857 0.428634644 0.428634644 0.494880766 0.261826634</_>
    <_>
      -2.85953426 -9.69974709 -12.1527433 -13.2174149 -26.0421753
      -18.085968 26.0644093 1.01294994 0.495649993 0.038640976 3.
      71.3062363 0.475734711 0.475734711 0.499410838 0.268267959</_>
    <_>
      -2.84721184 -9.44346046 -12.0683784 -14.2486124 27.409174
      19.8183193 -28.4189777 0.330799997 0.125249997 0.0126190186 3.
      22.0245914 0.458053589 0.458053589 0.498237401 0.268611103</_>
    <_>
      -2.84432793 -9.57101822 -12.0939817 -14.4615879 27.7613182
      -19.7164688 -28.2479534 0.266050011 0.0961000025 0.0101490021 3.
      20.579668 0.45463562 0.45463562 0.497937828 0.264798969</_>
    <_>
      -2.79385304 -9.26564121 -12.2627087 -13.3000832 -26.2242889
      18.0289288 -26.2399826 0.244599998 0.0971499979 0.00933074951 3.
      15.937788 0.41242218 0.41242218 0.49227038 0.257648706</_>
    <_>
      -2.83408737 -9.93346596 -12.4346437 -13.8929234 -27.0935936
      -19.3474731 27.4598331 0.297349989 0.120300002 0.0113430023 3.
      20.4768238 0.446578979 0.446578979 0.497137994 0.264386028</_>
    <_>
      -2.84644461 -9.75537586 -12.36094 -13.1673174 -26.223629
      18.7619324 25.9969482 0.435400009 0.202500001 0.0166091919 3.
      31.162035 0.458572388 0.458572388 0.498280793 0.26503244</_>
    <_>
      -2.87975311 -9.58819485 -12.6802883 -15.2524538 29.3334103
      -20.1031609 -29.4124165 2.03885007 1.08350003 0.0777759552 3.
      113.107361 0.497642517 0.497642517 0.499994457 0.273985267</_>
    <_>
      -2.82775831 -9.64409256 -11.8731222 -12.7799683 25.1246624
      17.7568321 -25.65448 0.278050005 0.101199999 0.0106067657 3.
      21.9682961 0.4375 0.4375 0.496078372 0.263171017</_>
    <_>
      -2.85566282 -10.6810293 -13.2526302 -13.0796585 -26.8125858
      18.7805138 -26.2623863 0.546500027 0.18705 0.0208473206 3.
      42.537365 0.470897675 0.470897675 0.499152333 0.26727429</_>
    <_>
      -2.83594465 -9.22350216 -13.006732 -13.3980227 -26.9018612
      18.4810505 -26.6627274 0.377299994 0.139850006 0.0143928528 3.
      30.3232117 0.449577332 0.449577332 0.497451067 0.265290022</_>
    <_>
      -2.87330389 -9.77528477 -12.7869434 -13.4601679 -26.656002
      -18.3967171 -26.8577347 0.973100007 0.338 0.0371208191 3.
      69.8181229 0.49016571 0.49016571 0.499903291 0.271902978</_>
    <_>
      -2.86503839 -10.1388283 -13.8692675 -13.2552004 -26.8526363
      -18.4331055 -27.229887 0.627449989 0.233549997 0.023935318 3.
      43.8324852 0.481441498 0.481441498 0.499655455 0.270838916</_>
    <_>
      -2.82539797 -9.4779253 -13.4361 -13.1596661 -26.4667816
      -17.8992214 27.1478786 0.32949999 0.113200001 0.0125694275 3.
      24.3069458 0.438289642 0.438289642 0.496177226 0.258444905</_>
    <_>
      -2.85271764 -10.5506601 -11.8508854 -14.1019049 27.2883034
      19.4056969 -27.182169 0.438300014 0.193350002 0.0167198181 3.
      35.61306 0.464866638 0.464866638 0.498764127 0.267251968</_>
    <_>
      -2.87055135 -10.1885176 -12.4050455 -13.3734846 -26.6580143
      18.5200615 26.3011227 1.02604997 0.422850013 0.0391407013 3.
      64.8120193 0.487094879 0.487094879 0.499833435 0.2727983</_>
    <_>
      -2.89234495 -10.7179899 -12.8663168 -13.7362061 27.0737019
      -19.1044807 27.4441452 13.2441998 7.54295015 0.505226135 3.
      455.34726 0.508594513 0.508594513 0.49992612 0.270111769</_>
    <_>
      -2.84338903 -9.8117075 -13.2145033 -13.2359257 26.6206284
      18.1466007 26.6030388 0.437900007 0.157450005 0.0167045593 3.
      31.5383587 0.457427979 0.457427979 0.498184323 0.266416192</_>
    <_>
      -2.82938457 -9.9330349 -12.7915621 -13.5179625 26.7478752
      -18.4853306 -26.9396324 0.314249992 0.131950006 0.0119876862 3.
      26.2492714 0.442302704 0.442302704 0.496659875 0.264290243</_>
    <_>
      -2.81404614 -9.08380032 -11.566328 -13.0010614 -25.6078815
      -17.5447788 25.3403339 0.336800009 0.14215 0.0128479004 3.
      23.6176872 0.430862427 0.430862427 0.495196939 0.260118186</_>
    <_>
      -2.84133387 -9.75986671 -12.5438108 -13.1375036 27.33325
      -18.358736 25.9785843 0.286000013 0.110950001 0.0109100342 3.
      22.6268463 0.451911926 0.451911926 0.497682154 0.263335675</_>
    <_>
      -2.83744526 -9.64028072 -15.2557688 -13.4582119 28.6247902
      18.5600739 -27.8204861 0.384649992 0.166299999 0.014673233 3.
      31.2327442 0.45161438 0.45161438 0.497653335 0.263648063</_>
    <_>
      -2.8205905 -9.79225731 -12.8047266 -11.9792061 24.7914696
      16.8929844 -24.4050236 0.386049986 0.196199998 0.0147266388 3.
      28.5266304 0.432636261 0.432636261 0.495441347 0.259507954</_>
    <_>
      -2.80987287 -10.0032825 -12.652915 -12.6801949 -25.5188866
      -18.429985 -25.477602 0.297399998 0.109099999 0.0113449097 3.
      21.5991077 0.422561646 0.422561646 0.493966907 0.261604458</_>
    <_>
      -2.82912254 -9.37514591 -12.9125977 -13.67764 28.7489548
      19.1886101 26.9728203 0.355599999 0.148100004 0.0135650635 3.
      27.8943977 0.442520142 0.442520142 0.496685088 0.261682957</_>
    <_>
      -2.80935693 -9.58982086 -11.5727043 -13.0559359 -25.4407978
      -17.887989 -25.6487217 0.244650006 0.101499997 0.00933265686 3.
      19.1935959 0.421035767 0.421035767 0.49372527 0.255330265</_>
    <_>
      -2.83445764 -9.65913868 -12.9428406 -12.6526108 26.1926098
      17.7060089 -25.457571 0.3134 0.112300001 0.0119552612 3.
      24.8959618 0.447814941 0.447814941 0.497269273 0.264367223</_>
    <_>
      -2.88182425 -10.0858765 -13.0211143 -13.6106567 26.9706154
      -18.8055592 27.2945004 5.29300022 2.22049999 0.201911926 3.
      275.695465 0.499954224 0.499954224 0.5 0.267379194</_>
    <_>
      -2.81642246 -9.36585999 -11.8164053 -12.6937523 -24.957655
      17.7243328 -25.648777 0.290450007 0.1017 0.0110797882 3.
      22.2112408 0.428977966 0.428977966 0.494930178 0.261694759</_>
    <_>
      -2.80743289 -9.42922306 -11.8924866 -12.8199205 26.2297821
      17.6692829 -25.1778259 0.296499997 0.107150003 0.0113105774 3.
      20.8894024 0.417194366 0.417194366 0.493095547 0.258036524</_>
    <_>
      -2.81487393 -9.43193531 -13.0028782 -13.177331 26.4434071
      -18.1688843 26.3951683 0.300150007 0.112149999 0.0114498138 3.
      18.4952602 0.426338196 0.426338196 0.494544178 0.257108986</_>
    <_>
      -2.80271506 -9.56455898 -12.3699942 -12.3939524 24.7837276
      -17.7423515 25.5021133 0.38894999 0.207900003 0.014837265 3.
      29.0940838 0.418624878 0.418624878 0.493333638 0.256946862</_>
    <_>
      -2.82705665 -10.0246239 -12.5809851 -13.777812 -27.2203217
      -19.4144878 27.0339489 0.29460001 0.104950003 0.0112380981 3.
      25.6167946 0.444805145 0.444805145 0.496944189 0.261153072</_>
    <_>
      -2.8290329 -10.1300926 -12.9637899 -12.8353262 -25.9560966
      -17.9147568 25.8321514 0.273449987 0.100299999 0.0104312897 3.
      18.6682968 0.437252045 0.437252045 0.49604708 0.261337698</_>
    <_>
      -2.83146238 -9.75615692 -13.3035746 -13.7951469 28.2522125
      19.6248894 27.3478546 0.282849997 0.100050002 0.0107898712 3.
      23.6869164 0.443199158 0.443199158 0.4967632 0.259812176</_>
    <_>
      -2.81109285 -9.93983078 -12.5884571 -13.0335274 25.9102116
      -18.0878525 26.1361542 0.228 0.0869499967 0.00869750977 3.
      14.9751892 0.424461365 0.424461365 0.494260967 0.262159914</_>
    <_>
      -2.83297634 -10.7401371 -13.4008913 -12.6212654 25.645565
      18.0424576 -26.2466393 0.322450012 0.114050001 0.0123004913 3.
      26.2064285 0.447933197 0.447933197 0.497281671 0.264527857</_>
    <_>
      -2.81622458 -9.94495964 -12.6093225 -12.4896517 25.4672909
      -18.8668747 25.0716915 0.572099984 0.263449997 0.0218238831 3.
      34.6984177 0.425033569 0.425033569 0.494348079 0.256843656</_>
    <_>
      -2.88216305 -9.97955322 -12.5800467 -12.547307 27.1103058
      17.5610981 -25.1110039 1.32044995 0.489050001 0.05037117 3.
      86.2530823 0.49741745 0.49741745 0.499993324 0.278257668</_>
    <_>
      -2.82976437 -9.76832199 -12.9722013 -13.4504032 -26.8946705
      -19.4699459 -26.7526035 0.246250004 0.0839999989 0.00939369202 3.
      22.4484386 0.446914673 0.446914673 0.497173965 0.265024245</_>
    <_>
      -2.8856895 -9.48152351 -13.5728912 -13.8819075 -27.6093845
      -19.3463268 -29.3310833 5.70790005 2.53174996 0.217739105 3.
      266.508606 0.503139496 0.503139496 0.499990135 0.268533945</_>
    <_>
      -2.85266519 -9.765172 -12.412035 -12.9591522 25.6859646 17.8708992
      26.025856 0.430999994 0.148499995 0.0164413452 3. 27.7212009
      0.468090057 0.468090057 0.498980731 0.269291341</_>
    <_>
      -2.85098624 -10.8369474 -13.0156412 -12.6529865 -25.5114307
      19.0963383 -25.9763489 0.493349999 0.207749993 0.018819809 3.
      39.5736198 0.462711334 0.462711334 0.498607606 0.266418964</_>
    <_>
      -2.81163478 -10.1371031 -12.6392584 -12.9083185 25.7068462
      -18.5325699 -26.1660519 0.293550014 0.105750002 0.0111980438 3.
      18.7178593 0.423194885 0.423194885 0.494065762 0.256172717</_>
    <_>
      -2.83748221 -10.2690516 -13.2957678 -13.3259306 -26.7526417
      -18.9819374 -26.8285503 0.276300013 0.0958999991 0.0105400085 3.
      22.0666008 0.449943542 0.449943542 0.497488052 0.263199717</_>
    <_>
      -2.80230474 -10.9331341 -12.929616 -12.5562153 25.512125
      18.8843269 -25.401186 0.268550009 0.104000002 0.0102443695 3.
      18.9124184 0.414608002 0.414608002 0.492654234 0.261835814</_>
    <_>
      -2.82071781 -10.6221924 -12.2764912 -13.7365303 26.8505859
      19.711977 -26.9471798 0.236699998 0.0927999988 0.00902938843 3.
      18.0718994 0.433761597 0.433761597 0.495593041 0.26049006</_>
    <_>
      -2.8371582 -10.5954847 -12.8059864 -12.8796167 26.1167011
      18.8673401 -25.7609825 0.356000006 0.1391 0.0135803223 3.
      27.3890991 0.448394775 0.448394775 0.497329772 0.266805023</_>
    <_>
      -2.82129669 -9.45572567 -13.5425758 -12.5673342 25.7208424
      17.9605541 -25.8412476 0.335949987 0.125049993 0.0128154755 3.
      23.4437885 0.435287476 0.435287476 0.495794594 0.25822407</_>
    <_>
      -2.82052374 -9.19411659 -12.0477209 -13.538043 -26.8371906
      -18.4934998 26.3531189 0.368550003 0.154699996 0.0140590668 3.
      29.269474 0.430492401 0.430492401 0.495145112 0.263697445</_>
    <_>
      -2.86129713 -10.3292694 -12.7888365 -13.3624706 -26.7328453
      -18.5323315 26.502737 0.796949983 0.355599999 0.0304012299 3.
      51.183754 0.476417542 0.476417542 0.499443561 0.272912979</_>
    <_>
      -2.81799054 -10.4834661 -13.6674604 -12.3574286 25.4037857
      -17.7360191 25.7898064 0.266499996 0.0988499969 0.0101661682 3.
      19.6816063 0.432575226 0.432575226 0.495433033 0.259422779</_>
    <_>
      -2.84743762 -10.0010691 -12.5238199 -12.4382544 25.0404568
      17.7345982 25.1037502 0.361400008 0.164299995 0.0137863159 3.
      29.7571812 0.461730957 0.461730957 0.498533338 0.267002612</_>
    <_>
      -2.82759237 -11.5205564 -12.0893612 -12.9470854 25.4802952
      18.9496231 -26.0532799 0.2465 0.0897499993 0.00940322876 3.
      19.1904793 0.437007904 0.437007904 0.496016115 0.260245889</_>
    <_>
      -2.90277886 -9.80074024 -13.1419449 -13.4860039 -27.087059
      18.3981304 26.8673038 11.3382502 5.4998498 0.432519913 3.
      385.498932 0.524585724 0.524585724 0.499395162 0.274159193</_>
    <_>
      -2.81992054 -10.1961346 -12.4507589 -13.0406904 25.924366
      18.1544991 25.9502659 0.229499996 0.0834999979 0.00875473022 3.
      18.4781742 0.434036255 0.434036255 0.495629698 0.258410245</_>
    <_>
      -2.83748746 -9.96011353 -12.5522537 -13.9211016 -27.4025497
      19.025259 27.2427864 0.242300004 0.0998999998 0.00924301147 3.
      19.6432705 0.447811127 0.447811127 0.497268856 0.266723663</_>
    <_>
      -2.81949878 -10.6619339 -12.8628902 -13.015357 27.8509102
      18.4295769 -25.9545174 0.290499985 0.107950002 0.0110816956 3.
      21.7567539 0.430446625 0.430446625 0.495138705 0.261109799</_>
    <_>
      -2.88835502 -9.77243519 -12.4249239 -13.2606401 -26.2682018
      -19.6668758 -26.240551 2.59575009 1.01964998 0.0990200043 3.
      142.443115 0.504863739 0.504863739 0.499976337 0.272637576</_>
    <_>
      -2.86110473 -9.53368855 -12.380991 -12.9506168 -27.1924591
      17.9467888 25.6165733 0.747900009 0.326299995 0.0285301208 3.
      51.8041687 0.477142334 0.477142334 0.499477267 0.272248536</_>
    <_>
      -2.84765887 -10.2287922 -12.3973694 -13.1475267 25.9214401
      -18.2620888 27.0059338 0.432500005 0.211899996 0.0164985657 3.
      30.1549282 0.460083008 0.460083008 0.498404086 0.261903375</_>
    <_>
      -2.84775376 -9.46847343 -12.5198298 -12.9088688 -25.7225704
      17.670517 -25.8407917 0.509450018 0.218500003 0.0194339752 3.
      37.0896988 0.461856842 0.461856842 0.498542964 0.269342035</_>
    <_>
      -2.81956458 -9.6345892 -13.5075817 -13.0386086 -26.3874435
      17.9565601 -26.5771866 0.381300002 0.153249994 0.0145454407 3.
      29.8475361 0.433139801 0.433139801 0.495509535 0.264767855</_>
    <_>
      -2.84950686 -9.99364471 -12.2763224 -13.8904762 -27.9781208
      -19.450613 26.9760151 0.437050015 0.162450001 0.0166721344 3.
      31.0992622 0.461395264 0.461395264 0.49850744 0.262615442</_>
    <_>
      -2.81232381 -9.66887856 -11.557559 -12.1475725 24.2776852
      -17.6834106 24.0710373 0.238199994 0.083449997 0.00908660889 3.
      14.3666611 0.426132202 0.426132202 0.494513452 0.260885447</_>
    <_>
      -2.81270432 -9.14699745 -13.0218477 -12.9784727 -26.0633507
      19.1066952 26.2240067 0.443749994 0.207149997 0.0169277191 3.
      30.8577576 0.421360016 0.421360016 0.493777037 0.259916961</_>
    <_>
      -2.8464551 -10.3010464 -12.6531305 -12.7962837 -25.7005749
      -17.9963093 25.6458721 0.47725001 0.222149998 0.0182056427 3.
      35.9337196 0.460723877 0.460723877 0.498454988 0.265877247</_>
    <_>
      -2.83530259 -10.4771242 -12.7649918 -13.4596004 26.5974293
      18.9416485 -27.0493774 0.399650007 0.151099995 0.0152454376 3.
      34.7657814 0.450954437 0.450954437 0.497588724 0.259367019</_>
    <_>
      -2.83541179 -10.4042377 -12.7664948 -12.801095 -25.7261295
      18.1425457 25.7450943 0.605449975 0.314550012 0.0230960846 3.
      51.4015999 0.449993134 0.449993134 0.497493029 0.258151501</_>
    <_>
      -2.87055206 -10.4085398 -13.1854858 -12.4861326 -25.7240601
      -18.4993858 25.3590145 3.74425006 1.83809996 0.142831802 3.
      215.434158 0.487888336 0.487888336 0.499853283 0.26083827</_>
    <_>
      -2.84143662 -10.1628542 -11.9323502 -13.5421972 26.2963295
      19.3062096 26.8428135 0.541199982 0.197549999 0.0206451416 3.
      38.820858 0.453960419 0.453960419 0.497875839 0.264825583</_>
    <_>
      -2.81524348 -9.83664417 -13.0306664 -12.6086111 25.6045704
      17.5269623 25.5557041 0.216399997 0.0837500021 0.00825500488 3.
      14.4283257 0.428295135 0.428295135 0.494831711 0.25907129</_>
    <_>
      -2.84010458 -9.64511871 -13.1186733 -13.7539988 27.7693443
      18.6505527 27.2059765 0.292050004 0.134450004 0.0111408234 3.
      21.9655972 0.451877594 0.451877594 0.497678846 0.266398668</_>
    <_>
      -2.80871129 -9.62308502 -11.7566242 -13.3306637 -26.1884823
      18.3193588 -25.9325676 0.270799994 0.109350003 0.0103302002 3.
      17.8243065 0.419052124 0.419052124 0.493403941 0.259352833</_>
    <_>
      -2.80927229 -10.1634684 -12.2467766 -12.3397331 -24.638773
      18.563509 -25.4230576 0.242850006 0.0933500007 0.00926399231 3.
      15.4873209 0.421783447 0.421783447 0.493844271 0.254544765</_>
    <_>
      -2.84311485 -10.367116 -12.4968405 -14.2927828 28.1414413
      -19.7395496 27.7162647 0.347900003 0.1228 0.0132713318 3.
      24.9214039 0.460769653 0.460769653 0.498458594 0.264422148</_>
    <_>
      -2.88982105 -10.9074249 -13.6736927 -14.1636734 -28.2874393
      -20.2742596 28.1893005 3.41709995 1.92649996 0.13035202 3.
      163.412674 0.510379791 0.510379791 0.499892235 0.271426439</_>
    <_>
      -2.87355018 -10.862998 -12.6993027 -13.124073 26.5625153
      -18.6030045 26.0558605 1.28929996 0.471199989 0.0491828918 3.
      90.7694778 0.485790253 0.485790253 0.49979803 0.272797644</_>
    <_>
      -2.85076237 -10.1791382 -12.5158958 -13.0512161 -26.4323273
      -18.6215229 -25.8490906 0.648199975 0.242300004 0.0247268677 3.
      48.7388306 0.464862823 0.464862823 0.498763859 0.269537419</_>
    <_>
      -2.82521892 -9.09008121 -13.1254244 -13.3346415 26.6712513
      -17.9134636 -26.7703304 0.346100003 0.145249993 0.0132026672 3.
      23.3884697 0.437614441 0.437614441 0.496092767 0.261528283</_>
    <_>
      -2.8131516 -10.02563 -12.5220776 -11.9544678 -24.3185101
      17.1865845 -24.3711872 0.377299994 0.182750002 0.0143928528 3.
      26.4949875 0.426166534 0.426166534 0.494518578 0.259546518</_>
    <_>
      -2.80939388 -9.14389801 -12.342042 -14.8143568 28.4519291
      -19.458725 -28.7031441 0.292549998 0.134650007 0.0111598969 3.
      22.2089863 0.420578003 0.420578003 0.493651837 0.253761947</_>
    <_>
      -2.86917973 -9.78283215 -13.2638178 -12.5405512 -25.4427395
      -17.7727509 -27.8062153 1.8053 0.685850024 0.0688667297 3.
      122.493706 0.486381531 0.486381531 0.49981451 0.271334618</_>
    <_>
      -2.85743952 -9.79013729 -12.9755354 -13.162405 26.2593746
      -18.7027988 -26.6900196 0.716449976 0.275950015 0.0273303986 3.
      59.2545776 0.471138 0.471138 0.49916628 0.268380791</_>
    <_>
      -2.87583399 -10.4493933 -14.2489538 -13.7919092 27.9694061
      19.0699024 -27.9564972 1.02509999 0.414350003 0.0391044617 3.
      77.1272812 0.492778778 0.492778778 0.499947846 0.273366749</_>
    <_>
      -2.88444591 -10.7166739 -13.291193 -13.2618313 27.0468693
      -18.7725697 26.5602951 3.98079991 2.13404989 0.151855469 3.
      245.188766 0.506713867 0.506713867 0.499954909 0.272048235</_>
    <_>
      -2.84316683 -9.56336117 -13.1098433 -12.7356586 25.7229252
      -17.7308083 25.953413 0.538800001 0.212300003 0.0205535889 3.
      39.6670303 0.455955505 0.455955505 0.498056293 0.268574446</_>
    <_>
      -2.83001041 -11.1853476 -12.3675547 -12.8762531 25.6236839
      -18.5422478 -25.6769142 0.344550014 0.138449997 0.0131435394 3.
      23.0608444 0.443820953 0.443820953 0.496833891 0.261828125</_>
    <_>
      -2.81747627 -9.12868214 -12.2984753 -13.4866285 26.3827553
      -18.8993549 -27.272646 0.339399993 0.124700002 0.0129470825 3.
      22.8842049 0.430042267 0.430042267 0.495081723 0.2639741</_>
    <_>
      -2.80868411 -9.55193806 -12.4438305 -12.5586872 25.2814541
      -17.5051384 25.1570473 0.333900005 0.132650003 0.0127372742 3.
      19.5608749 0.418582916 0.418582916 0.493326724 0.259200305</_>
    <_>
      -2.88411999 -10.2152987 -13.0445204 -13.6981754 -27.0853271
      -18.9119205 -27.646368 2.49810004 0.954999983 0.0952949524 3.
      158.281067 0.501438141 0.501438141 0.499997944 0.272014171</_>
    <_>
      -2.8202436 -9.31221867 -13.1117411 -13.6757021 27.1105785
      -18.4921761 27.4508457 0.306199998 0.111400001 0.011680603 3.
      21.5237179 0.434539795 0.434539795 0.495696455 0.258627146</_>
    <_>
      -2.80896187 -9.34444714 -12.0928316 -12.7630491 -25.4709988
      17.6850471 -25.2609425 0.388799995 0.154550001 0.014831543 3.
      28.0702343 0.423213959 0.423213959 0.494068712 0.259952635</_>
    <_>
      -2.85944653 -9.96019363 -12.7407894 -13.458004 -27.0030441
      18.4430771 -26.5872536 4.52769995 2.74300003 0.172718048 3.
      248.494766 0.475784302 0.475784302 0.499413252 0.259817958</_>
    <_>
      -2.84648871 -10.409276 -12.4016514 -12.4294691 -24.8455944
      -17.7368736 -26.1379814 0.411199987 0.155000001 0.0156860352 3.
      32.8179131 0.459823608 0.459823608 0.498383254 0.267300129</_>
    <_>
      -2.85843444 -9.64347363 -12.9320488 -12.7170715 26.0845585
      17.6709766 25.5602264 0.83099997 0.343199998 0.0317001343 3.
      58.3948517 0.47315979 0.47315979 0.499279082 0.272642314</_>
    <_>
      -2.80842781 -10.2963953 -12.1773605 -14.0876646 -27.5550804
      19.2497063 -27.2724361 0.304250002 0.106449999 0.0116062164 3.
      22.1392803 0.422397614 0.422397614 0.493941158 0.260467112</_>
    <_>
      -2.86672091 -9.9481144 -13.724721 -13.0186529 -26.9351063
      -18.3170319 -26.4087696 2.29705 0.814400017 0.0876255035 3.
      153.774033 0.481773376 0.481773376 0.499667674 0.258175522</_>
    <_>
      -2.82202625 -9.87917519 -12.8678627 -12.7237339 -25.8891335
      17.6923771 -25.5632362 0.333799988 0.138850003 0.0127334595 3.
      25.7957191 0.435264587 0.435264587 0.495791614 0.256867349</_>
    <_>
      -2.81240582 -9.39050102 -11.4121256 -12.2993879 24.5040741
      17.3611221 -24.2037392 0.270099998 0.101949997 0.0103034973 3.
      21.0479813 0.422660828 0.422660828 0.493982434 0.260258585</_>
    <_>
      -2.81351805 -9.01318741 -11.4979963 -13.3100882 -25.9559155
      -17.8167057 25.8005829 0.388000011 0.14395 0.0148010254 3.
      23.7722454 0.42697525 0.42697525 0.494638652 0.259252042</_>
    <_>
      -2.80935049 -10.1487322 -12.0255985 -13.1054211 -25.7806129
      18.4565392 25.8717766 0.312700003 0.125400007 0.0119285583 3.
      22.3637161 0.420516968 0.420516968 0.493642032 0.255854905</_>
    <_>
      -2.84489489 -9.73341274 -12.964613 -12.8573685 25.8230057
      -17.928051 26.0947094 0.374249995 0.129050002 0.0142765045 3.
      26.6675053 0.456336975 0.456336975 0.49808988 0.265354276</_>
    <_>
      -2.8158133 -9.34214783 -14.261982 -12.7475176 -26.2523994
      -18.7190704 27.8614082 0.263399988 0.114749998 0.0100479126 3.
      13.8140116 0.429790497 0.429790497 0.495046079 0.261896104</_>
    <_>
      -2.82341719 -9.72206593 -12.4788322 -13.5244665 -27.3050194
      18.3881836 -26.5322113 0.277999997 0.1074 0.0106048584 3.
      21.6575851 0.441131592 0.441131592 0.496522427 0.265973538</_>
    <_>
      -2.8843317 -9.35727024 -12.3740978 -13.2511988 26.0645561
      -18.0155926 27.307457 1.96305001 0.844799995 0.0748844147 3.
      113.96212 0.50302887 0.50302887 0.499990821 0.274076998</_>
    <_>
      -2.79875875 -9.22288036 -11.5039997 -12.0549307 25.0189457
      -16.8513432 23.8353252 0.282849997 0.106399998 0.0107898712 3.
      18.3638897 0.411914825 0.411914825 0.492179841 0.259331375</_>
    <_>
      -2.82198405 -9.80911922 -12.4167204 -13.0173836 25.8476772
      17.980175 -25.9299755 0.334300011 0.140750006 0.012752533 3.
      23.5527325 0.430938721 0.430938721 0.495207578 0.259862453</_>
    <_>
      -2.82811856 -10.1095972 -12.7321253 -12.4775858 -25.406086
      17.734848 25.137867 0.292199999 0.128999993 0.0111465454 3.
      26.5320435 0.439159393 0.439159393 0.496284604 0.264374048</_>
    <_>
      -2.8400197 -9.78203678 -14.3329678 -12.9577627 -26.7359238
      -18.9782257 26.7729378 0.427049994 0.157000005 0.0162906647 3.
      35.6860237 0.45633316 0.45633316 0.498089552 0.268611103</_>
    <_>
      -2.81813455 -10.5450907 -12.9343843 -13.1747484 -26.9805222
      -19.0317955 -26.2362518 0.293749988 0.103349999 0.0112056732 3.
      22.3759918 0.429264069 0.429264069 0.494971126 0.260214299</_>
    <_>
      -2.84145856 -9.82133198 -13.5793447 -13.6635141 -27.8946609
      18.5842037 27.2984562 0.36680001 0.156550005 0.0139923096 3.
      21.9692001 0.457298279 0.457298279 0.498173237 0.26718992</_>
    <_>
      -2.8126266 -9.6976223 -12.422348 -12.7979126 25.409977 18.1368237
      26.4340496 0.344700009 0.123300001 0.0131492615 3. 23.2120018
      0.427700043 0.427700043 0.494745106 0.259485066</_>
    <_>
      -2.85223508 -10.5894527 -13.3576126 -13.1032228 -26.4381409
      -18.5039997 26.5426159 0.386949986 0.146950006 0.0147609711 3.
      29.8297596 0.464954376 0.464954376 0.498770297 0.265669614</_>
    <_>
      -2.8000145 -9.59315491 -12.6879797 -12.7369785 -25.4582901
      17.5638714 -26.1491947 0.241150007 0.0846500024 0.00919914246 3.
      15.043889 0.418731689 0.418731689 0.493351251 0.259660989</_>
    <_>
      -2.81843829 -8.99006462 -12.3676386 -12.9732494 -25.6797562
      17.4933472 26.0513229 0.203749999 0.0714000016 0.00777244568 3.
      16.3009453 0.432472229 0.432472229 0.495419025 0.258206338</_>
    <_>
      -2.81881738 -9.74123764 -13.1335287 -12.7985163 -26.0546227
      17.7402401 25.8307838 0.304149985 0.118050002 0.0116024017 3.
      21.644865 0.432155609 0.432155609 0.495375752 0.263551354</_>
    <_>
      -2.85522604 -10.3711042 -12.2807379 -12.8033733 -25.5306263
      -19.9198494 -25.4660473 0.430350006 0.166950002 0.0164165497 3.
      28.3919125 0.466587067 0.466587067 0.498882324 0.267176837</_>
    <_>
      -2.83346486 -10.0586987 -12.7145052 -13.1541557 26.8668804
      -18.1875896 26.0945969 0.304250002 0.131050006 0.0116062164 3.
      24.4704494 0.444465637 0.444465637 0.49690637 0.266321599</_>
    <_>
      -2.82512379 -9.29465485 -12.1326513 -13.2686071 26.4243412
      17.9281597 25.9977283 0.27790001 0.0931999981 0.0106010437 3.
      22.2055244 0.43744278 0.43744278 0.49607116 0.263156176</_>
    <_>
      -2.80970836 -9.2906847 -11.3795853 -12.4588737 24.515007
      17.1042595 -24.5431404 0.302749991 0.145799994 0.011548996 3.
      22.1315842 0.417087555 0.417087555 0.493077606 0.261328399</_>
    <_>
      -2.87787247 -10.7459068 -12.1502533 -13.5187378 -27.1737671
      18.9316559 26.3582535 2.73970008 1.31620002 0.104511261 3.
      144.077103 0.49527359 0.49527359 0.499977648 0.267973989</_>
    <_>
      -2.89940071 -9.95987606 -12.572506 -12.9111395 25.6825695
      17.9188976 26.100275 7.71000004 3.11619997 0.294113159 3.
      277.969025 0.518001556 0.518001556 0.49967584 0.272169054</_>
    <_>
      -2.80999494 -10.7770891 -12.2711573 -13.9813328 -27.1252174
      19.4608936 -27.6614647 0.184200004 0.0708499998 0.00702667236 3.
      14.443717 0.425308228 0.425308228 0.494389653 0.25455749</_>
    <_>
      -2.82840753 -9.35349941 -13.1009092 -13.2095118 -27.3141842
      -17.8927631 26.3674793 0.266499996 0.0997999981 0.0101661682 3.
      22.598074 0.438137054 0.438137054 0.496158212 0.262333035</_>
    <_>
      -2.81574321 -9.9717989 -12.4950199 -12.8559103 25.5792198
      18.0642128 -25.8833179 0.307249993 0.121100001 0.0117206573 3.
      26.1868744 0.431846619 0.431846619 0.495333344 0.259056836</_>
    <_>
      -2.8351891 -10.1172657 -12.8781595 -12.3903913 -25.6708698
      17.9902649 -25.0360355 0.323100001 0.132699996 0.0123252869 3.
      25.9570389 0.448974609 0.448974609 0.497389585 0.264842004</_>
    <_>
      -2.85612369 -9.53750515 -12.4642038 -12.9925652 -25.8971214
      17.7893963 -25.8485222 0.643949986 0.232449993 0.024564743 3.
      48.3278732 0.467903137 0.467903137 0.49896872 0.267615139</_>
    <_>
      -2.8126173 -9.79872131 -11.9195509 -12.775383 25.5530109
      -17.7559223 25.1550808 0.453949988 0.209450006 0.0173168182 3.
      32.2531509 0.424446106 0.424446106 0.494258642 0.260285258</_>
    <_>
      -2.84824109 -9.99820137 -12.8726768 -13.1632566 26.1823406
      -19.3780842 27.3262806 0.424400002 0.151950002 0.0161895752 3.
      29.4983597 0.459934235 0.459934235 0.498392135 0.266441554</_>
    <_>
      -2.82830167 -10.0692787 -12.6616697 -12.0207319 24.3744946
      -17.5540428 24.9870605 0.310600013 0.110749997 0.0118484497 3.
      22.7236156 0.439125061 0.439125061 0.496280402 0.262105882</_>
    <_>
      -2.83416772 -10.6066914 -12.3733444 -13.0176544 25.7922287
      18.4173431 -25.97085 0.296200007 0.111149997 0.0112991333 3.
      26.5515976 0.447826385 0.447826385 0.497270465 0.259143502</_>
    <_>
      -2.84570241 -10.1366959 -12.6288967 -12.8863468 -25.7664738
      18.2762718 -25.8266487 0.475699991 0.183750004 0.0181465149 3.
      33.2333031 0.460350037 0.460350037 0.498425394 0.270423174</_>
    <_>
      -2.79546952 -9.11730194 -11.6352329 -13.1753225 25.7481537
      17.7401237 25.7153168 0.213349998 0.0825000033 0.00813865662 3.
      14.1050673 0.413181305 0.413181305 0.492404819 0.260542363</_>
    <_>
      -2.89818573 -11.8738937 -13.0184441 -13.9902592 -27.8105526
